// This file is computer-generated by onnx2c 
// (TODO: add creating command line here)
// (TODO: print creation date here )

// ONNX model:
// produced by pytorch, version 2.4.0
// ONNX IR version: 11
// Model documentation: 
/*

*/

#include <float.h>
#include <math.h>
#include <stdbool.h>
#include <stdint.h>
#include <string.h>

#define MAX(X,Y) ( X > Y ? X : Y)
#define MIN(X,Y) ( X < Y ? X : Y)
#define CLIP(X,L) ( MAX(MIN(X,L), -L) )

#if __STDC_VERSION__ < 199901L
#define FUNC_PREFIX
#else
#define FUNC_PREFIX static inline
#endif
#ifdef __AVR__
#include <avr/pgmspace.h>
#define RD_PROGMEM(x) pgm_read_byte(&(x))
#else
#define RD_PROGMEM(x) (x)
#endif

static const float tensor_fc_weight[1][64] = 
{
  {0.046907618641853332520f, -0.16714744269847869873f, 0.078620016574859619141f, 0.20907455682754516602f, 0.064553648233413696289f, 0.068986788392066955566f, 0.098539672791957855225f, -0.071018427610397338867f, 0.0056552831083536148071f, 0.15767242014408111572f, 0.13926994800567626953f, 0.13248734176158905029f, 0.061803583055734634399f, 0.015838492661714553833f, 0.0029712605755776166916f, -0.023091120645403862000f, 0.13306263089179992676f, -0.12403149902820587158f, -0.098281145095825195312f, 0.13129860162734985352f, -0.021030787378549575806f, -0.15876603126525878906f, -0.0069013210013508796692f, -0.033690541982650756836f, 0.078874945640563964844f, -0.092686332762241363525f, 0.10882387310266494751f, -0.16432620584964752197f, -0.033919766545295715332f, -0.053184933960437774658f, -0.024277970194816589355f, 0.051228944212198257446f, -0.11677961051464080811f, -0.13498708605766296387f, 0.17677293717861175537f, 0.18919445574283599854f, 0.13187655806541442871f, -0.025406189262866973877f, -0.033653650432825088501f, 0.043184932321310043335f, 0.11857353150844573975f, -0.041560195386409759521f, -0.062905900180339813232f, -0.065223090350627899170f, -0.17314594984054565430f, -0.10358328372240066528f, 0.11027136445045471191f, -0.13911917805671691895f, 0.14042450487613677979f, 0.14913809299468994141f, -0.052481278777122497559f, -0.14177644252777099609f, -0.12755815684795379639f, 0.12106823921203613281f, 0.0015413409564644098282f, -0.11488215625286102295f, 0.15131959319114685059f, -0.052096098661422729492f, -0.013889997266232967377f, 0.0016943456139415502548f, -0.054950721561908721924f, -0.13671372830867767334f, 0.031382601708173751831f, 0.069176807999610900879f}
};
static const float tensor_fc_bias[1] = 
{0.11719111353158950806f};
static const float tensor_onnx__LSTM_325[1][256][3] = 
{
  {
    {-0.20089057087898254395f, -0.035046204924583435059f, -0.042580604553222656250f},
    {-0.21407653391361236572f, 0.40491428971290588379f, -0.67546719312667846680f},
    {-0.13548740744590759277f, -0.091174997389316558838f, -0.72844433784484863281f},
    {-0.30292555689811706543f, -0.15072636306285858154f, 0.23943820595741271973f},
    {-0.23685982823371887207f, 0.10199372470378875732f, 0.055055085569620132446f},
    {-0.013228456489741802216f, 0.53040176630020141602f, 0.45972836017608642578f},
    {-0.61536216735839843750f, -0.33413642644882202148f, -0.31004261970520019531f},
    {0.17437280714511871338f, -0.76600539684295654297f, -0.39185920357704162598f},
    {0.0069173220545053482056f, -0.062894076108932495117f, -0.92186856269836425781f},
    {0.42084518074989318848f, -0.21365550160408020020f, -0.55938142538070678711f},
    {-0.017324157059192657471f, -0.098269551992416381836f, -0.69650012254714965820f},
    {-0.10577600449323654175f, -0.047312133014202117920f, 0.14920860528945922852f},
    {0.026158530265092849731f, 0.012955249287188053131f, 0.58484345674514770508f},
    {0.11823495477437973022f, -1.3098976612091064453f, -0.22210082411766052246f},
    {-0.14872886240482330322f, 0.28513151407241821289f, 0.10329213738441467285f},
    {-0.33481344580650329590f, 0.0065056788735091686249f, -0.37824735045433044434f},
    {0.30636513233184814453f, -0.12618599832057952881f, -0.37066701054573059082f},
    {-0.094601556658744812012f, -0.31947219371795654297f, -0.39770328998565673828f},
    {0.065536506474018096924f, -0.029234210029244422913f, -0.48148638010025024414f},
    {0.45520320534706115723f, -0.097528956830501556396f, -0.91411548852920532227f},
    {-0.78928178548812866211f, 0.58373826742172241211f, -0.69442087411880493164f},
    {-0.19923955202102661133f, 0.12825630605220794678f, -0.24137198925018310547f},
    {-0.30997431278228759766f, 0.25875717401504516602f, -0.10016851872205734253f},
    {-0.039262209087610244751f, 0.66896748542785644531f, -0.11440182477235794067f},
    {0.040865052491426467896f, 0.026040878146886825562f, 0.16765654087066650391f},
    {0.27972805500030517578f, -0.98115295171737670898f, -1.2604893445968627930f},
    {0.26248994469642639160f, 0.11221111565828323364f, -0.83423882722854614258f},
    {-0.023249266669154167175f, 0.18845193088054656982f, 0.41845157742500305176f},
    {0.063373230397701263428f, 0.067473843693733215332f, 0.010639961808919906616f},
    {-0.086468957364559173584f, -0.029790772125124931335f, 0.53099399805068969727f},
    {0.16061328351497650146f, 0.27968940138816833496f, -1.1432878971099853516f},
    {0.079789161682128906250f, 0.26909595727920532227f, 0.38935071229934692383f},
    {0.092552915215492248535f, -0.19865056872367858887f, -0.34706282615661621094f},
    {-0.0062307622283697128296f, 0.48057597875595092773f, -0.68993639945983886719f},
    {0.035019837319850921631f, 0.095923252403736114502f, -0.49146077036857604980f},
    {0.016630874946713447571f, 0.014693927019834518433f, 0.32745644450187683105f},
    {0.45667177438735961914f, 0.40461239218711853027f, -0.33866843581199645996f},
    {-0.11711773276329040527f, 0.21028849482536315918f, -0.59082627296447753906f},
    {-0.36358806490898132324f, -0.32259762287139892578f, -0.65266829729080200195f},
    {-0.066006772220134735107f, -0.023374876007437705994f, -1.1530766487121582031f},
    {-0.0081855561584234237671f, 0.32379493117332458496f, 0.56271964311599731445f},
    {-0.17227393388748168945f, 0.12973086535930633545f, -0.17772087454795837402f},
    {0.064844958484172821045f, -0.11606359481811523438f, -0.78633391857147216797f},
    {-0.26589030027389526367f, -0.026877446100115776062f, 0.32122939825057983398f},
    {0.014241207391023635864f, 0.41056844592094421387f, -0.16967181861400604248f},
    {0.067358873784542083740f, -0.18128260970115661621f, -0.49700340628623962402f},
    {-1.2532535791397094727f, -0.14646092057228088379f, -0.43218031525611877441f},
    {0.026119129732251167297f, -0.020042927935719490051f, -0.17226462066173553467f},
    {-0.35491773486137390137f, 0.12839248776435852051f, 0.24660813808441162109f},
    {-0.18972462415695190430f, 0.92199450731277465820f, -0.40240561962127685547f},
    {0.16607971489429473877f, -0.30283007025718688965f, -0.72869282960891723633f},
    {-0.026792865246534347534f, 0.19700890779495239258f, 0.56939232349395751953f},
    {0.80966490507125854492f, 0.20821589231491088867f, 0.24912837147712707520f},
    {-0.12391681969165802002f, 0.19069099426269531250f, -0.47850853204727172852f},
    {0.026295166462659835815f, 0.039881274104118347168f, 0.37697115540504455566f},
    {0.091168731451034545898f, 0.83591580390930175781f, -0.53662389516830444336f},
    {-0.22634989023208618164f, 0.22569054365158081055f, 0.43439033627510070801f},
    {1.2329812049865722656f, -0.21335221827030181885f, -0.30546540021896362305f},
    {-1.0477560758590698242f, 0.27533793449401855469f, -0.91139423847198486328f},
    {-0.0073043019510805606842f, -0.016276972368359565735f, 0.57347989082336425781f},
    {0.12426156550645828247f, 0.22421580553054809570f, 0.0025481921620666980743f},
    {-0.29639658331871032715f, 0.20949104428291320801f, -0.32269015908241271973f},
    {0.13658334314823150635f, 0.54095005989074707031f, 0.089358069002628326416f},
    {0.26459002494812011719f, -0.025037450715899467468f, 0.49891367554664611816f},
    {-0.43638861179351806641f, 0.045387502759695053101f, -0.10980458557605743408f},
    {0.0087414402514696121216f, 0.73517602682113647461f, -0.62282574176788330078f},
    {-0.0059995632618665695190f, 0.0066604828462004661560f, -0.85750436782836914062f},
    {-0.038554474711418151855f, -0.017877949401736259460f, 0.53563600778579711914f},
    {-0.026178557425737380981f, 0.19800573587417602539f, 0.27127662301063537598f},
    {0.028136428445577621460f, 0.63772940635681152344f, 0.61046165227890014648f},
    {-0.38388648629188537598f, -0.52218019962310791016f, -0.25514420866966247559f},
    {0.083625450730323791504f, -0.95555883646011352539f, -0.35705581307411193848f},
    {-0.0025980242062360048294f, 0.057038851082324981689f, -0.83338117599487304688f},
    {0.20093768835067749023f, -0.10566311329603195190f, -0.52060580253601074219f},
    {-0.16404566168785095215f, -0.0029462082311511039734f, -0.71282249689102172852f},
    {-0.12365002930164337158f, 0.15163677930831909180f, 0.28535747528076171875f},
    {0.082637339830398559570f, 0.0093038985505700111389f, 0.71604269742965698242f},
    {-0.0040979641489684581757f, -0.84027367830276489258f, -0.10999614000320434570f},
    {0.30600813031196594238f, 0.34433546662330627441f, 0.23114053905010223389f},
    {-0.19244089722633361816f, 0.14367578923702239990f, -0.23955063521862030029f},
    {-0.11676913499832153320f, -0.018515724688768386841f, -0.019387777894735336304f},
    {-0.29243478178977966309f, 0.10072608292102813721f, -0.26823174953460693359f},
    {0.018318571150302886963f, -0.021973535418510437012f, -0.63090455532073974609f},
    {0.43964192271232604980f, -0.12710556387901306152f, -1.0829488039016723633f},
    {-0.79289406538009643555f, 0.54485839605331420898f, -0.71630871295928955078f},
    {-0.17954349517822265625f, 0.17175590991973876953f, -0.084714435040950775146f},
    {-0.30509606003761291504f, 0.29565668106079101562f, -0.019000355154275894165f},
    {-0.19609963893890380859f, 0.72352963685989379883f, -0.15329918265342712402f},
    {-0.090916588902473449707f, -0.085477881133556365967f, 0.19063791632652282715f},
    {0.41297522187232971191f, -0.76290571689605712891f, -1.2534614801406860352f},
    {-0.073528230190277099609f, 0.035816360265016555786f, -0.99916589260101318359f},
    {-0.12521807849407196045f, 0.29709574580192565918f, 0.64824461936950683594f},
    {0.23975829780101776123f, 0.17344698309898376465f, -0.0090753091499209403992f},
    {-0.0089311851188540458679f, -0.099597364664077758789f, 0.50462716817855834961f},
    {0.080370888113975524902f, 0.31935900449752807617f, -1.1005500555038452148f},
    {0.070515491068363189697f, 0.21594478189945220947f, 0.47723996639251708984f},
    {0.050693787634372711182f, 0.24410112202167510986f, -0.26793813705444335938f},
    {0.012573719955980777740f, 0.61670112609863281250f, -0.70901721715927124023f},
    {-0.13370460271835327148f, 0.61239379644393920898f, -0.34407657384872436523f},
    {-0.036842115223407745361f, 0.16261723637580871582f, 0.19451591372489929199f},
    {0.48116278648376464844f, 0.26708793640136718750f, -0.40592849254608154297f},
    {-0.25904768705368041992f, 0.32819351553916931152f, -0.38405218720436096191f},
    {-0.33714744448661804199f, 0.030274253338575363159f, -0.62417203187942504883f},
    {-0.14634077250957489014f, 0.062184013426303863525f, -0.98452383279800415039f},
    {-0.12887962162494659424f, 0.31771308183670043945f, 0.58434605598449707031f},
    {-0.18110479414463043213f, 0.20425841212272644043f, -0.41232883930206298828f},
    {-0.079529918730258941650f, -0.10760483890771865845f, -0.94390815496444702148f},
    {-0.085117787122726440430f, -0.050767157226800918579f, 0.33586156368255615234f},
    {-0.14129111170768737793f, 0.28774967789649963379f, -0.017921749502420425415f},
    {-0.070078179240226745605f, 0.065318450331687927246f, -0.74218350648880004883f},
    {-1.1762857437133789062f, -0.086707681417465209961f, -0.65574508905410766602f},
    {0.048870496451854705811f, -0.063281662762165069580f, -0.33299252390861511230f},
    {-0.067062363028526306152f, 0.27499729394912719727f, 0.30486914515495300293f},
    {-0.14797374606132507324f, 0.80020403861999511719f, -0.41433531045913696289f},
    {0.20715868473052978516f, -0.24580383300781250000f, -0.89647376537322998047f},
    {-0.078540168702602386475f, 0.30367305874824523926f, 0.44829842448234558105f},
    {0.54495245218276977539f, 0.41671499609947204590f, 0.37759503722190856934f},
    {-0.088588573038578033447f, 0.18688511848449707031f, -0.40647798776626586914f},
    {-0.27107831835746765137f, 0.14937907457351684570f, 0.51764166355133056641f},
    {0.032785296440124511719f, 0.94610041379928588867f, -0.42882043123245239258f},
    {0.010128152556717395782f, 0.24663695693016052246f, 0.31900513172149658203f},
    {0.99880319833755493164f, -0.23580998182296752930f, -0.32517355680465698242f},
    {-0.84718638658523559570f, 0.084279462695121765137f, -0.82018274068832397461f},
    {-0.027204103767871856689f, -0.10251563042402267456f, 0.52416080236434936523f},
    {0.24982455372810363770f, 0.12438908964395523071f, -0.036641441285610198975f},
    {-0.30205208063125610352f, 0.35459116101264953613f, -0.24108134210109710693f},
    {0.0014010679442435503006f, 0.53468120098114013672f, 0.15843564271926879883f},
    {0.19696567952632904053f, 0.15694127976894378662f, 0.55597507953643798828f},
    {0.042513225227594375610f, 0.078184291720390319824f, -0.061044935137033462524f},
    {0.21206265687942504883f, 0.18597017228603363037f, -0.53571718931198120117f},
    {-0.13595552742481231689f, -0.052213169634342193604f, -0.35047939419746398926f},
    {0.13198861479759216309f, 0.047777775675058364868f, 0.41861972212791442871f},
    {0.059342913329601287842f, 0.094806261360645294189f, 0.17975038290023803711f},
    {-0.057963382452726364136f, 0.36762651801109313965f, -0.23428866267204284668f},
    {-0.52433526515960693359f, -0.57081723213195800781f, -0.12521401047706604004f},
    {-0.014483819715678691864f, -0.15263834595680236816f, -0.65123629570007324219f},
    {0.095030434429645538330f, 0.088996633887290954590f, -0.45684331655502319336f},
    {0.26878741383552551270f, 0.028651304543018341064f, -0.76540458202362060547f},
    {-0.057920522987842559814f, -0.18401119112968444824f, -0.33882340788841247559f},
    {-0.25362947583198547363f, -0.35249504446983337402f, 0.24509201943874359131f},
    {-0.11123372614383697510f, -0.056913278996944427490f, 0.37354815006256103516f},
    {0.0051847519353032112122f, -1.2284812927246093750f, -0.031469617038965225220f},
    {0.18946094810962677002f, -0.42042508721351623535f, 0.33138039708137512207f},
    {0.18314881622791290283f, -0.34213486313819885254f, -0.19994759559631347656f},
    {0.17200256884098052979f, -0.16326984763145446777f, 0.049865853041410446167f},
    {0.10629004985094070435f, -0.17095454037189483643f, 0.056828144937753677368f},
    {0.034581631422042846680f, 0.12123236060142517090f, -0.56686282157897949219f},
    {-0.22134080529212951660f, 0.089047804474830627441f, -0.97030729055404663086f},
    {0.24192282557487487793f, -0.43738451600074768066f, -0.47139120101928710938f},
    {-0.018888259306550025940f, -0.31735497713088989258f, 0.033033903688192367554f},
    {0.20514219999313354492f, -0.0057596657425165176392f, -0.24459262192249298096f},
    {0.29842245578765869141f, 0.48509740829467773438f, -0.019987259060144424438f},
    {-0.29280269145965576172f, -0.079738363623619079590f, 0.10509415715932846069f},
    {0.25008657574653625488f, -0.61264514923095703125f, -0.35733234882354736328f},
    {0.051413636654615402222f, 0.36513969302177429199f, -0.60475748777389526367f},
    {-0.052511829882860183716f, 0.20256091654300689697f, 0.15580248832702636719f},
    {0.65256547927856445312f, -0.39138403534889221191f, 0.37742477655410766602f},
    {0.096128486096858978271f, -0.17342589795589447021f, 0.36954927444458007812f},
    {0.069275654852390289307f, -0.51673847436904907227f, -0.45489993691444396973f},
    {-0.048212796449661254883f, 0.21895322203636169434f, 0.22175788879394531250f},
    {-0.10602866858243942261f, 0.058055978268384933472f, 0.12287545949220657349f},
    {0.28742328286170959473f, 0.56171917915344238281f, -0.35302516818046569824f},
    {0.17552469670772552490f, -0.19863878190517425537f, -0.057450085878372192383f},
    {0.074371591210365295410f, 0.087548911571502685547f, 0.12482462078332901001f},
    {-0.25987559556961059570f, -0.45392245054244995117f, -0.62723422050476074219f},
    {0.15141183137893676758f, 0.086093127727508544922f, -0.30733728408813476562f},
    {-0.22876699268817901611f, -0.022139064967632293701f, -0.13273230195045471191f},
    {0.11687177419662475586f, -0.53830093145370483398f, -0.64308053255081176758f},
    {0.56866216659545898438f, -0.56514030694961547852f, 0.038224469870328903198f},
    {0.0038575921207666397095f, 0.36290237307548522949f, -0.82556873559951782227f},
    {-0.10463146865367889404f, 0.092677250504493713379f, -0.59853774309158325195f},
    {0.19322767853736877441f, 0.046558879315853118896f, -0.24545650184154510498f},
    {-0.018335351720452308655f, -0.033097282052040100098f, -0.044975217431783676147f},
    {0.069416426122188568115f, 0.30844619870185852051f, -0.52648103237152099609f},
    {-1.2977403402328491211f, 0.18803924322128295898f, -0.24012051522731781006f},
    {-0.033120289444923400879f, 0.18511404097080230713f, -0.61141818761825561523f},
    {-0.22877027094364166260f, 0.26768633723258972168f, 0.42193627357482910156f},
    {-0.35650178790092468262f, 0.32320854067802429199f, 0.24533432722091674805f},
    {-0.088094003498554229736f, 0.23626227676868438721f, -0.43607762455940246582f},
    {-0.030307145789265632629f, 0.17609484493732452393f, 0.083520300686359405518f},
    {-0.11218214780092239380f, 0.12101021409034729004f, -0.12320860475301742554f},
    {0.17502972483634948730f, -0.50553238391876220703f, -0.24785374104976654053f},
    {0.055995222181081771851f, -0.13007740676403045654f, 0.56788665056228637695f},
    {-0.014702708460390567780f, 0.92158305644989013672f, 0.082739032804965972900f},
    {-0.043223198503255844116f, 0.34079113602638244629f, 0.24949175119400024414f},
    {0.45315590500831604004f, -0.46149060130119323730f, 0.00089472735999152064323f},
    {-0.41669040918350219727f, -0.27106589078903198242f, -0.67316395044326782227f},
    {0.045333880931138992310f, -0.051172025501728057861f, 0.54702478647232055664f},
    {-0.28481310606002807617f, -0.35306829214096069336f, 0.19160939753055572510f},
    {0.10585328936576843262f, -0.18196997046470642090f, -0.12138425558805465698f},
    {0.24726159870624542236f, 0.58044034242630004883f, -0.25504666566848754883f},
    {0.27089726924896240234f, -0.32816565036773681641f, 0.035931248217821121216f},
    {-0.0033034931402653455734f, -0.0043230247683823108673f, -0.52348208427429199219f},
    {-0.015323251485824584961f, -0.18380469083786010742f, -0.43452650308609008789f},
    {0.012890164740383625031f, 0.0082653425633907318115f, 0.46699330210685729980f},
    {0.0093652699142694473267f, 0.052308797836303710938f, 0.53122830390930175781f},
    {0.011715869419276714325f, -0.027510788291692733765f, -0.54208856821060180664f},
    {-0.0054572313092648983002f, -0.15057674050331115723f, -0.56643027067184448242f},
    {0.033813919872045516968f, 0.093191742897033691406f, -0.17398282885551452637f},
    {-0.010683561675250530243f, -0.31871342658996582031f, 0.47042825818061828613f},
    {-0.013283699750900268555f, 0.051676038652658462524f, -0.30670815706253051758f},
    {0.047107879072427749634f, -0.016512630507349967957f, 0.49623641371726989746f},
    {0.026189563795924186707f, -0.014004266820847988129f, 0.47162032127380371094f},
    {0.011974795721471309662f, 0.079494550824165344238f, -0.51033252477645874023f},
    {0.0042836884967982769012f, 0.0035213863011449575424f, 0.64302897453308105469f},
    {0.0017886658897623419762f, -0.74135953187942504883f, 0.066776804625988006592f},
    {0.022574808448553085327f, -0.019394535571336746216f, -0.44102740287780761719f},
    {-0.031587339937686920166f, 0.0010996109340339899063f, -0.43637162446975708008f},
    {0.0086783105507493019104f, -0.0021556764841079711914f, -0.28542649745941162109f},
    {0.048552267253398895264f, 0.022937050089240074158f, -0.24740247428417205811f},
    {0.0071309325285255908966f, -0.013918992131948471069f, -0.55994868278503417969f},
    {0.0098523087799549102783f, -0.14509193599224090576f, -0.46858045458793640137f},
    {0.010016967542469501495f, 0.038561068475246429443f, 0.66592282056808471680f},
    {0.0089432401582598686218f, -0.053634256124496459961f, 0.52452969551086425781f},
    {0.0091564413160085678101f, 0.071229398250579833984f, 0.52262490987777709961f},
    {-0.11351232975721359253f, -0.14229528605937957764f, -0.29506555199623107910f},
    {0.037617743015289306641f, -0.082319349050521850586f, 0.52052867412567138672f},
    {-0.17442065477371215820f, 0.23229557275772094727f, 0.28314313292503356934f},
    {0.021813128143548965454f, 0.10219624638557434082f, -0.48739537596702575684f},
    {0.00072900037048384547234f, 0.038205273449420928955f, 0.55305790901184082031f},
    {0.0089444313198328018188f, -0.082591086626052856445f, 0.47215586900711059570f},
    {0.0085167149081826210022f, -0.19152675569057464600f, 0.61142051219940185547f},
    {-0.013467943295836448669f, -0.048076365143060684204f, -0.58612674474716186523f},
    {-0.0027759016957134008408f, -0.10250056535005569458f, -0.58737421035766601562f},
    {0.0054540089331567287445f, -0.037920985370874404907f, 0.35710537433624267578f},
    {-0.081278495490550994873f, -0.062222495675086975098f, 0.45128840208053588867f},
    {0.0087091811001300811768f, 0.035037480294704437256f, 0.46772512793540954590f},
    {-0.0071006752550601959229f, -0.0063126133754849433899f, 0.53075367212295532227f},
    {-0.014693493023514747620f, -0.013098878785967826843f, -0.58406573534011840820f},
    {0.0078367870301008224487f, 0.10965777188539505005f, 0.42323681712150573730f},
    {0.055981308221817016602f, -0.062565706670284271240f, 0.28318688273429870605f},
    {0.031483456492424011230f, 0.082502990961074829102f, 0.55706340074539184570f},
    {0.0021804743446409702301f, -0.014678922481834888458f, -0.56450688838958740234f},
    {-0.0097721554338932037354f, -0.11258970201015472412f, -0.54225003719329833984f},
    {-0.0036599580198526382446f, -0.065402075648307800293f, 0.49785986542701721191f},
    {-0.0042148334905505180359f, -0.046295616775751113892f, 0.59514468908309936523f},
    {-0.0020451149903237819672f, -0.022486301138997077942f, -0.52301555871963500977f},
    {0.016532663255929946899f, -0.063257813453674316406f, -0.69472366571426391602f},
    {-0.63486301898956298828f, -0.014153352938592433929f, -0.015871843323111534119f},
    {-0.00092848291387781500816f, 0.0034759747795760631561f, -0.59715312719345092773f},
    {0.056767590343952178955f, -0.053119998425245285034f, -0.52991712093353271484f},
    {0.043920934200286865234f, -0.28068614006042480469f, 0.22395965456962585449f},
    {-0.010104541666805744171f, 0.014561988413333892822f, -0.51483374834060668945f},
    {-0.0062291026115417480469f, -0.054413631558418273926f, -0.69349455833435058594f},
    {-0.0013143282849341630936f, -0.060652062296867370605f, -0.56164687871932983398f},
    {-0.025149721652269363403f, 0.020628610625863075256f, -0.47196084260940551758f},
    {0.018406610935926437378f, -0.11612194031476974487f, 0.55684190988540649414f},
    {0.0078594526275992393494f, 0.74548763036727905273f, -0.094112105667591094971f},
    {-0.011998162604868412018f, 0.083001680672168731689f, 0.57895296812057495117f},
    {-0.64655244350433349609f, -0.10043419152498245239f, 0.078677177429199218750f},
    {-0.18898186087608337402f, 0.066615499556064605713f, -0.073811605572700500488f},
    {0.0017776206368580460548f, -0.067276649177074432373f, -0.57398301362991333008f},
    {0.0088318577036261558533f, 0.12524697184562683105f, -0.43268251419067382812f},
    {0.0090314168483018875122f, 0.051288858056068420410f, 0.48519390821456909180f},
    {-0.030983839184045791626f, 0.13186036050319671631f, 0.55494439601898193359f},
    {0.017994603142142295837f, -0.032910842448472976685f, -0.54935771226882934570f}
  }
};
static const float tensor_onnx__LSTM_326[1][256][64] = 
{
  {
    {-0.11999625712633132935f, -0.20705853402614593506f, -0.0036733059678226709366f, 0.13097915053367614746f, -0.24296928942203521729f, -0.12029212713241577148f, 0.0012171391863375902176f, -0.27024209499359130859f, 0.13421027362346649170f, 0.067444391548633575439f, 0.11341980099678039551f, -0.16243280470371246338f, -0.19197970628738403320f, 0.21337258815765380859f, 0.11020255088806152344f, -0.27209883928298950195f, 0.022577079012989997864f, -0.39431124925613403320f, -0.31358656287193298340f, 0.028542060405015945435f, -0.047162991017103195190f, 0.37878599762916564941f, 0.12235245108604431152f, -0.54317456483840942383f, -0.10609848797321319580f, -0.010760698467493057251f, -0.054965957999229431152f, 0.19437171518802642822f, 0.36135026812553405762f, -0.39677503705024719238f, -0.17735965549945831299f, -0.22305589914321899414f, 0.13125851750373840332f, 0.39189729094505310059f, 0.062497355043888092041f, 0.27061337232589721680f, 0.00042124924948439002037f, 0.10136494040489196777f, -0.13823428750038146973f, 0.00077499047620221972466f, 0.016031865030527114868f, -0.0059468229301273822784f, 0.045375432819128036499f, 0.32316815853118896484f, -0.12556803226470947266f, 0.017443949356675148010f, -0.15962879359722137451f, -0.37703096866607666016f, 0.044501595199108123779f, -0.39237037301063537598f, -0.16256472468376159668f, 0.080398894846439361572f, 0.085551731288433074951f, -0.34378111362457275391f, -0.15516871213912963867f, 0.080222614109516143799f, -0.22308845818042755127f, 0.33297616243362426758f, 0.018684236332774162292f, -0.17785595357418060303f, -0.19480101764202117920f, 0.39465469121932983398f, 0.30738741159439086914f, -0.15467032790184020996f},
    {0.0045832837931811809540f, -0.0015903027961030602455f, -0.17484672367572784424f, -0.13634116947650909424f, -0.080428011715412139893f, -0.16345201432704925537f, 0.041011020541191101074f, 0.11076357215642929077f, -0.092553086578845977783f, 0.046048738062381744385f, -0.17894108593463897705f, -0.027303082868456840515f, -0.10213787108659744263f, 0.26664486527442932129f, 0.10476178675889968872f, -0.048941481858491897583f, -0.034734785556793212891f, -0.23309926688671112061f, -0.37638750672340393066f, 0.026890125125646591187f, -0.018526248633861541748f, -0.19547215104103088379f, -0.065391950309276580811f, -0.17244578897953033447f, -0.18818865716457366943f, -0.16362701356410980225f, -0.039884969592094421387f, 0.11594586819410324097f, 0.068867541849613189697f, -0.19687463343143463135f, -0.099333651363849639893f, -0.31958484649658203125f, 0.21290832757949829102f, 0.10658939182758331299f, -0.22854155302047729492f, -0.10682298988103866577f, 0.10744915902614593506f, -0.051725339144468307495f, -0.018022332340478897095f, -0.092654109001159667969f, 0.13159781694412231445f, -0.27741244435310363770f, 0.19844996929168701172f, -0.032165363430976867676f, 0.14567813277244567871f, 0.32765901088714599609f, -0.12869118154048919678f, -0.057192672044038772583f, 0.20783676207065582275f, 0.34871461987495422363f, -0.17938482761383056641f, -0.034256722778081893921f, 0.016975229606032371521f, 0.018363544717431068420f, 0.14185431599617004395f, -0.33034947514533996582f, -0.045493938028812408447f, 0.22238914668560028076f, -0.11840209364891052246f, 0.14973460137844085693f, -0.20596410334110260010f, 0.094489730894565582275f, 0.071537636220455169678f, -0.0083910450339317321777f},
    {0.45306590199470520020f, -0.072882980108261108398f, -0.29359108209609985352f, -0.25311782956123352051f, -0.12484576553106307983f, 0.22027277946472167969f, 0.031719081103801727295f, 0.013627599924802780151f, -0.16643539071083068848f, 0.062287427484989166260f, -0.87381923198699951172f, -0.41168388724327087402f, -0.15461009740829467773f, -0.080281034111976623535f, 0.23853008449077606201f, 0.080887585878372192383f, -0.044731087982654571533f, -0.14600262045860290527f, -0.45940214395523071289f, 0.10051345825195312500f, -0.097465291619300842285f, -0.30339848995208740234f, -0.076081365346908569336f, -0.088421441614627838135f, -0.53647750616073608398f, 0.0063900854438543319702f, -0.031787797808647155762f, 0.18682004511356353760f, 0.29601812362670898438f, -0.38598060607910156250f, -0.0037744690198451280594f, -0.35675406455993652344f, 0.22831897437572479248f, 0.16761784255504608154f, -0.14791770279407501221f, -0.11127343028783798218f, 0.11893085390329360962f, 0.027535350993275642395f, 0.13480143249034881592f, -0.024289000779390335083f, 0.25745239853858947754f, -0.39207860827445983887f, 0.27196982502937316895f, -0.15859770774841308594f, 0.17014703154563903809f, -0.21959729492664337158f, -0.28710076212882995605f, -0.19726228713989257812f, 0.23816782236099243164f, -0.075710274279117584229f, -0.30356761813163757324f, -0.26477280259132385254f, 0.18712946772575378418f, -0.038005672395229339600f, -0.026951108127832412720f, -0.074360221624374389648f, -0.24737726151943206787f, 0.39845651388168334961f, 0.027033314108848571777f, 0.30745425820350646973f, -0.26653367280960083008f, 0.26305925846099853516f, 0.028234293684363365173f, 0.16611911356449127197f},
    {-0.054695338010787963867f, 0.12669400870800018311f, -0.21572479605674743652f, 0.14035984873771667480f, -0.29679057002067565918f, 0.39866673946380615234f, 0.22549265623092651367f, -0.037683047354221343994f, 0.061825450509786605835f, 0.15201401710510253906f, -0.049927532672882080078f, -0.39240080118179321289f, -0.15304024517536163330f, 0.040812168270349502563f, 0.49090468883514404297f, 0.10327508300542831421f, -0.17997534573078155518f, -0.21388587355613708496f, -0.40261483192443847656f, 0.084359824657440185547f, -0.13254638016223907471f, 0.25936338305473327637f, 0.034837592393159866333f, -0.0073229935951530933380f, -0.0057001900859177112579f, 0.12582604587078094482f, -0.044588506221771240234f, 0.25027143955230712891f, 0.52062296867370605469f, 0.24307522177696228027f, -0.28082576394081115723f, 0.19286422431468963623f, 0.37469229102134704590f, 0.35259991884231567383f, 0.11451334506273269653f, 0.10970836132764816284f, -0.064473718404769897461f, -0.16151978075504302979f, -0.11673428863286972046f, 0.10479226708412170410f, -0.088559694588184356689f, 0.023101681843400001526f, 0.091529481112957000732f, 0.27644452452659606934f, 0.13476407527923583984f, 0.22389724850654602051f, -0.65521591901779174805f, -0.15169113874435424805f, -0.050959151238203048706f, 0.069311335682868957520f, -0.052492108196020126343f, 0.19624400138854980469f, -0.062541790306568145752f, -0.0088382698595523834229f, 0.21684233844280242920f, 0.14120428264141082764f, -0.31630766391754150391f, 0.53071713447570800781f, 0.21898025274276733398f, 0.014639296568930149078f, -0.56752270460128784180f, 0.056417085230350494385f, 0.16302758455276489258f, -0.014590506441891193390f},
    {-0.23767314851284027100f, 0.021761769428849220276f, -0.12919028103351593018f, -0.099881961941719055176f, -0.30526223778724670410f, 0.19166910648345947266f, -0.099037222564220428467f, 0.19839598238468170166f, 0.18753731250762939453f, -0.096832863986492156982f, -0.30376005172729492188f, -0.18074984848499298096f, -0.022668970748782157898f, 0.15241478383541107178f, 0.076863519847393035889f, -0.023749647662043571472f, -0.046892113983631134033f, -0.20169243216514587402f, -0.15838694572448730469f, -0.012190855108201503754f, 0.0019332176307216286659f, 0.18175190687179565430f, -0.26649308204650878906f, -0.22753149271011352539f, -0.17848323285579681396f, 0.064070276916027069092f, 0.044985044747591018677f, -0.033006954938173294067f, 0.26153364777565002441f, -0.13375861942768096924f, -0.092236943542957305908f, -0.30359473824501037598f, -0.078234009444713592529f, 0.55634868144989013672f, -0.048977799713611602783f, -0.042438156902790069580f, -0.0074552861042320728302f, 0.015433207154273986816f, -0.080184027552604675293f, 0.23522953689098358154f, 0.23473134636878967285f, 0.13847497105598449707f, -0.027188386768102645874f, -0.038267292082309722900f, -0.00018894713139161467552f, 0.46503001451492309570f, -0.53144341707229614258f, 0.20061764121055603027f, 0.038798931986093521118f, 0.058064125478267669678f, 0.090195529162883758545f, -0.020686764270067214966f, -0.096272729337215423584f, -0.13013833761215209961f, 0.017459692433476448059f, -0.092966407537460327148f, -0.21769735217094421387f, -0.54222005605697631836f, 0.18332497775554656982f, -0.12495774030685424805f, -0.28513354063034057617f, 0.18513280153274536133f, 0.049620620906352996826f, -0.025623174384236335754f},
    {-0.58051389455795288086f, -0.13421259820461273193f, -0.27432641386985778809f, 0.85437285900115966797f, -0.83257859945297241211f, -0.051787901669740676880f, -0.0021339610684663057327f, -0.41402646899223327637f, 0.14475582540035247803f, -0.34755814075469970703f, -0.20557697117328643799f, -0.13868115842342376709f, 0.19875004887580871582f, 1.6189010143280029297f, -0.49343958497047424316f, -0.36562123894691467285f, -0.36602380871772766113f, 0.056563477963209152222f, 0.073239184916019439697f, 0.34628525376319885254f, -0.26874136924743652344f, 0.37010604143142700195f, 0.27158850431442260742f, -0.024143435060977935791f, 0.32644611597061157227f, 0.17753796279430389404f, 0.13626398146152496338f, 0.25956001877784729004f, 0.35688164830207824707f, 0.18184842169284820557f, 0.0042962050065398216248f, -0.58541953563690185547f, -0.071591414511203765869f, 0.70664763450622558594f, 0.20356331765651702881f, 0.47963529825210571289f, 0.086294203996658325195f, 0.14944946765899658203f, -0.041163366287946701050f, -0.12233081459999084473f, 0.22328782081604003906f, 0.073338851332664489746f, -0.19088275730609893799f, -0.52643424272537231445f, -0.42687308788299560547f, 0.74646359682083129883f, -0.44539242982864379883f, 0.26575291156768798828f, -0.39101570844650268555f, -0.26632043719291687012f, 0.15766546130180358887f, -0.046635255217552185059f, -0.31650665402412414551f, 0.041761722415685653687f, 0.38313132524490356445f, 0.073491632938385009766f, 0.11214288324117660522f, -0.086265996098518371582f, -0.21140122413635253906f, -0.84638005495071411133f, -0.090866856276988983154f, 0.19876044988632202148f, 0.027982134371995925903f, -1.2137937545776367188f},
    {0.13209550082683563232f, 0.022256392985582351685f, 0.31030949950218200684f, -0.96263122558593750000f, -0.14009217917919158936f, 0.10710982233285903931f, -0.12745285034179687500f, 1.2967692613601684570f, -0.43450683355331420898f, 0.24171739816665649414f, -0.52284210920333862305f, -0.80130755901336669922f, 0.35538098216056823730f, 0.093054488301277160645f, 0.11629219353199005127f, 0.13429410755634307861f, 0.30219477415084838867f, 0.047316454350948333740f, -0.88585889339447021484f, 0.086711242794990539551f, 0.056170627474784851074f, 0.10414556413888931274f, 0.045540977269411087036f, -0.015419790521264076233f, 0.40692606568336486816f, -0.17680136859416961670f, -0.18284253776073455811f, 0.15740309655666351318f, 0.29929617047309875488f, 0.54916560649871826172f, -0.16656178236007690430f, 0.10138207674026489258f, 0.18977957963943481445f, 0.038600545376539230347f, 0.53681206703186035156f, 0.26845297217369079590f, 0.056798707693815231323f, -0.17982356250286102295f, 0.12491793930530548096f, 0.13826932013034820557f, 0.093483723700046539307f, -0.24007269740104675293f, 0.26129093766212463379f, 1.1253405809402465820f, 0.048749592155218124390f, -0.40314424037933349609f, 0.21038334071636199951f, -0.61456853151321411133f, 0.23296250402927398682f, -0.31073167920112609863f, -0.38278463482856750488f, -0.15698984265327453613f, -0.13450059294700622559f, -0.14136447012424468994f, 0.62937390804290771484f, 0.70131903886795043945f, -0.077774375677108764648f, 1.1035680770874023438f, -0.099885188043117523193f, 0.48345655202865600586f, 0.011850265786051750183f, -0.062355767935514450073f, 0.21738234162330627441f, 0.83860862255096435547f},
    {0.26228198409080505371f, 0.30205646157264709473f, 0.24595218896865844727f, 0.18299914896488189697f, 0.010696740821003913879f, 0.28771480917930603027f, 0.75626689195632934570f, -0.087926991283893585205f, -0.36133936047554016113f, 0.31318444013595581055f, 0.26420825719833374023f, -0.64668124914169311523f, 0.085465401411056518555f, 0.47868645191192626953f, -0.40420225262641906738f, 0.050212714821100234985f, -0.32448878884315490723f, -0.0038368990644812583923f, -0.42876097559928894043f, 0.065323196351528167725f, 0.11859729140996932983f, 0.21999925374984741211f, 0.21331080794334411621f, 0.49584928154945373535f, 0.12844669818878173828f, 0.38213393092155456543f, -0.59313488006591796875f, 0.30170518159866333008f, 0.076398149132728576660f, 0.11059067398309707642f, -0.068031184375286102295f, -0.10787978768348693848f, 0.29770803451538085938f, 0.17602963745594024658f, 0.26041519641876220703f, 0.20355103909969329834f, -0.063341446220874786377f, 0.030209718272089958191f, 0.14814609289169311523f, -0.075150735676288604736f, -0.48473343253135681152f, 0.066099248826503753662f, 0.28100845217704772949f, 0.80699473619461059570f, -0.10208369046449661255f, -0.49301856756210327148f, -0.17725257575511932373f, -0.17089629173278808594f, -0.10462584346532821655f, -0.35045039653778076172f, -0.26089534163475036621f, -0.034938290715217590332f, -0.0026186218019574880600f, -0.13828723132610321045f, 0.041477594524621963501f, 0.11648469418287277222f, -0.0031236673239618539810f, -0.79251909255981445312f, -0.21271347999572753906f, -0.16893151402473449707f, 0.025023609399795532227f, -0.059135220944881439209f, 0.019819747656583786011f, -0.67597115039825439453f},
    {0.28346911072731018066f, 0.074772335588932037354f, -0.058723501861095428467f, -0.26813918352127075195f, -0.0011954880319535732269f, 0.28663900494575500488f, 0.058160666376352310181f, -0.0019310708157718181610f, 0.037249054759740829468f, -0.11323136091232299805f, -0.26431015133857727051f, -0.13178952038288116455f, -0.16429443657398223877f, -0.080915004014968872070f, 0.073978297412395477295f, 0.072876051068305969238f, -0.18684662878513336182f, -0.18545489013195037842f, -0.17567433416843414307f, 0.028319826349616050720f, -0.056100316345691680908f, 0.062197525054216384888f, -0.017510177567601203918f, 0.18191616237163543701f, -0.23398217558860778809f, -0.070931322872638702393f, 0.054542064666748046875f, 0.11376000195741653442f, 0.33316582441329956055f, -0.31738343834877014160f, -0.054527156054973602295f, -0.40903243422508239746f, 0.028595175594091415405f, -0.19659222662448883057f, 0.062391348183155059814f, -0.11710509657859802246f, -0.047889214009046554565f, -0.14977383613586425781f, 0.064111687242984771729f, 0.21036286652088165283f, -0.0043001626618206501007f, -0.30727070569992065430f, 0.024233739823102951050f, 0.12022724747657775879f, -0.073826394975185394287f, 0.36452978849411010742f, -0.10179577022790908813f, -0.017463391646742820740f, -0.13682743906974792480f, -0.040075939148664474487f, -0.13515670597553253174f, -0.024075573310256004333f, 0.079846300184726715088f, 0.080632723867893218994f, 0.088632285594940185547f, -0.073240503668785095215f, -0.074669823050498962402f, -0.16131375730037689209f, 0.17874467372894287109f, 0.18480311334133148193f, -0.29083800315856933594f, 0.13627614080905914307f, 0.060360588133335113525f, 0.091959074139595031738f},
    {0.32643687725067138672f, 0.020070789381861686707f, 0.0071692247875034809113f, 0.028006786480545997620f, -0.056010667234659194946f, -0.095474213361740112305f, 0.047720830887556076050f, 0.12470191717147827148f, -0.19100688397884368896f, -0.11965443193912506104f, -0.20079210400581359863f, -0.35177734494209289551f, -0.080445572733879089355f, -0.32875937223434448242f, -0.30411404371261596680f, -0.059784449636936187744f, -0.019961951300501823425f, -0.015929779037833213806f, -0.10850487649440765381f, 0.073686510324478149414f, -0.27829650044441223145f, -0.17725701630115509033f, -0.13751351833343505859f, -0.15529413521289825439f, -0.060421116650104522705f, 0.057568326592445373535f, 0.097030617296695709229f, 0.0016333572566509246826f, 0.29336136579513549805f, -0.48376572132110595703f, 0.0064195273444056510925f, -0.61272710561752319336f, 0.27771118283271789551f, 0.050237935036420822144f, -0.14023321866989135742f, -0.031254775822162628174f, -0.018911387771368026733f, 0.081404455006122589111f, 0.049684520810842514038f, 0.053762726485729217529f, -0.13054299354553222656f, -0.22329585254192352295f, 0.046964649111032485962f, 0.021170414984226226807f, 0.020842131227254867554f, -0.74299728870391845703f, -0.54437983036041259766f, -0.044793583452701568604f, 0.34177333116531372070f, -0.098829597234725952148f, -0.13441358506679534912f, -0.22563382983207702637f, -0.031725134700536727905f, 0.014634633436799049377f, 0.067230023443698883057f, -0.20983952283859252930f, -0.17246411740779876709f, 0.16373282670974731445f, 0.068069271743297576904f, -0.11359906196594238281f, -0.17346471548080444336f, -0.040983159095048904419f, 0.10863179713487625122f, -0.10425771772861480713f},
    {-0.022929485887289047241f, -0.082682929933071136475f, -0.29649654030799865723f, -0.38000705838203430176f, -0.31983125209808349609f, 0.39818671345710754395f, 0.055766880512237548828f, 0.00033539219293743371964f, 0.14851596951484680176f, -0.25120434165000915527f, -0.50077140331268310547f, -0.60874557495117187500f, 0.017719024792313575745f, -0.13124760985374450684f, 0.061724454164505004883f, -0.036419916898012161255f, -0.36297032237052917480f, 0.16516755521297454834f, -0.38034918904304504395f, 0.10435520857572555542f, -0.026237811893224716187f, -0.063848666846752166748f, -0.065750777721405029297f, 0.16536402702331542969f, -0.46661955118179321289f, -0.11986278742551803589f, 0.061483599245548248291f, 0.28407290577888488770f, 0.32325056195259094238f, -0.18408028781414031982f, -0.28141644597053527832f, -0.21211095154285430908f, 0.14225125312805175781f, 0.23064848780632019043f, 0.11759661138057708740f, -0.018926579505205154419f, -0.26344475150108337402f, 0.18846790492534637451f, -0.31053870916366577148f, 0.29052689671516418457f, 0.48925766348838806152f, 0.092058748006820678711f, 0.00012435304233804345131f, 0.18435524404048919678f, 0.22808097302913665771f, -0.19351136684417724609f, -1.1122244596481323242f, -0.036507364362478256226f, 0.24839790165424346924f, 0.31577956676483154297f, 0.072314649820327758789f, -0.17658928036689758301f, 0.056685652583837509155f, 0.0085579594597220420837f, 0.24423305690288543701f, -0.12351063638925552368f, -0.56047052145004272461f, 0.38977211713790893555f, 0.42807927727699279785f, 0.32669627666473388672f, -0.64488703012466430664f, 0.26009771227836608887f, 0.17566615343093872070f, 0.12120654433965682983f},
    {0.00059007026720792055130f, -0.23036572337150573730f, 0.24196389317512512207f, 0.19171035289764404297f, -0.33820930123329162598f, 0.13513745367527008057f, -0.53287065029144287109f, 0.073166042566299438477f, 0.14797943830490112305f, -0.19454368948936462402f, 0.25560528039932250977f, -0.28563126921653747559f, 0.22816701233386993408f, 0.012761243619024753571f, 0.070932477712631225586f, -0.16519868373870849609f, -0.0023821752984076738358f, -0.0073050847277045249939f, -0.0086172008886933326721f, -0.29472440481185913086f, 0.0054429499432444572449f, 0.17648868262767791748f, -0.064953766763210296631f, -0.69036102294921875000f, 0.13266167044639587402f, -0.10823701322078704834f, 0.075630269944667816162f, 0.076172806322574615479f, -0.20902694761753082275f, 0.16792425513267517090f, -0.23145237565040588379f, -0.064943782985210418701f, 0.14457540214061737061f, 0.33428031206130981445f, 0.10161928832530975342f, 0.20242393016815185547f, 0.040337141603231430054f, -0.022735757753252983093f, 0.034238837659358978271f, 0.074056223034858703613f, 0.098549596965312957764f, 0.27700757980346679688f, -0.0049927867949008941650f, -0.18068742752075195312f, -0.24270813167095184326f, 0.33979830145835876465f, -0.44533908367156982422f, 0.073577389121055603027f, -0.22415111958980560303f, -0.46499729156494140625f, 0.16612543165683746338f, 0.053532455116510391235f, -0.12642373144626617432f, -0.10001113265752792358f, 0.17835676670074462891f, 0.14704896509647369385f, -0.20800510048866271973f, -0.38489481806755065918f, 0.16383497416973114014f, -0.33713942766189575195f, -0.013658098876476287842f, -0.080999210476875305176f, -0.0084008136764168739319f, -0.21191895008087158203f},
    {-0.52156484127044677734f, -0.33666732907295227051f, -0.13744398951530456543f, 0.57538670301437377930f, -0.39327713847160339355f, 0.0058211279101669788361f, -0.30590865015983581543f, -0.39787545800209045410f, 0.54040014743804931641f, -1.2659137248992919922f, -0.020347222685813903809f, -0.029199531301856040955f, 0.25525304675102233887f, 0.59396821260452270508f, -0.50289118289947509766f, 0.14023269712924957275f, -0.30348849296569824219f, 0.26821899414062500000f, 0.69010031223297119141f, -0.089841835200786590576f, -0.033065311610698699951f, 0.22817605733871459961f, 0.17770487070083618164f, -0.38629627227783203125f, 0.24639227986335754395f, 0.11467378586530685425f, 0.63631904125213623047f, 0.055776301771402359009f, 0.19627042114734649658f, 0.21012245118618011475f, -0.30202245712280273438f, -0.020627060905098915100f, -0.45231321454048156738f, 0.21820946037769317627f, 0.49349066615104675293f, 0.023064307868480682373f, -0.10542835295200347900f, 0.13412359356880187988f, -0.12955234944820404053f, 0.41867956519126892090f, 0.27750211954116821289f, 1.1360322237014770508f, -0.29295143485069274902f, -0.40911176800727844238f, -0.23356951773166656494f, 1.0108785629272460938f, -0.77451789379119873047f, 1.1955040693283081055f, -0.26867157220840454102f, 0.16311982274055480957f, 0.58159035444259643555f, 0.20392735302448272705f, -0.022980706766247749329f, 0.17851532995700836182f, 0.32915517687797546387f, 0.054570119827985763550f, -0.090262807905673980713f, 0.14029094576835632324f, 0.25495970249176025391f, -0.29841002821922302246f, -0.092377133667469024658f, 0.13917110860347747803f, -0.017649818211793899536f, -0.28815084695816040039f},
    {0.088978499174118041992f, -0.28592309355735778809f, 0.24966417253017425537f, 0.010985391214489936829f, -0.060922250151634216309f, -0.019938819110393524170f, 1.4334170818328857422f, -0.24529314041137695312f, -0.49192193150520324707f, 0.095079168677330017090f, -0.10061879456043243408f, -0.49036201834678649902f, -0.50717818737030029297f, 1.3172557353973388672f, -1.5804088115692138672f, 0.053560134023427963257f, -0.28101456165313720703f, -0.19809243083000183105f, -0.31723409891128540039f, 0.44308003783226013184f, 0.36247020959854125977f, -0.10817214846611022949f, 0.90987622737884521484f, -0.34040531516075134277f, 0.030668890103697776794f, 0.15935914218425750732f, -0.49014660716056823730f, -0.33888790011405944824f, 0.72840166091918945312f, -0.12430537492036819458f, 0.25151655077934265137f, -0.64190286397933959961f, 0.0067723272368311882019f, -0.22950075566768646240f, 1.1444268226623535156f, 0.48428940773010253906f, 0.065406158566474914551f, 0.38828092813491821289f, 0.057129386812448501587f, -0.32282781600952148438f, -0.95528745651245117188f, -0.49145188927650451660f, 0.15003085136413574219f, 0.66956478357315063477f, -0.39334341883659362793f, -0.00019129220163449645042f, -0.27338361740112304688f, -0.41901385784149169922f, -0.52039605379104614258f, -1.8184037208557128906f, -0.20297543704509735107f, 0.0052808308973908424377f, 0.43599280714988708496f, 0.17729571461677551270f, -0.20530377328395843506f, -0.77036505937576293945f, 0.28143575787544250488f, -0.18569648265838623047f, -0.51511424779891967773f, 0.34685301780700683594f, -0.057422153651714324951f, -0.043427444994449615479f, 0.47882810235023498535f, -0.81462442874908447266f},
    {0.36271652579307556152f, 0.15768983960151672363f, 0.0031735929660499095917f, -0.64622229337692260742f, -0.041499104350805282593f, 0.15780983865261077881f, -1.3985913991928100586f, 0.040028810501098632812f, 0.37259659171104431152f, 0.0083481427282094955444f, -0.41000989079475402832f, -0.021848905831575393677f, 0.33250528573989868164f, -1.3355137109756469727f, -0.14036425948143005371f, -0.23970831930637359619f, -0.12082644551992416382f, 0.55502676963806152344f, 0.18813151121139526367f, 0.30539378523826599121f, 0.31847307085990905762f, -0.099553763866424560547f, -0.33018749952316284180f, 0.34557011723518371582f, -0.11618122458457946777f, 0.010511176660656929016f, 0.094427794218063354492f, 0.68300133943557739258f, 0.58858889341354370117f, 0.32359275221824645996f, -0.091857098042964935303f, -0.041417423635721206665f, -0.44304007291793823242f, 0.20713013410568237305f, 0.33530172705650329590f, -0.34400689601898193359f, 0.19616357982158660889f, -0.13552099466323852539f, -0.48539948463439941406f, -0.0017207365017384290695f, 0.10993535071611404419f, -0.16502629220485687256f, -0.040495462715625762939f, 0.37611460685729980469f, -0.21587434411048889160f, -0.13511313498020172119f, -0.97994858026504516602f, 0.42836913466453552246f, -0.21662697196006774902f, -0.074737176299095153809f, 0.077567346394062042236f, -0.22993783652782440186f, -0.45624223351478576660f, 0.12033718824386596680f, 0.80338442325592041016f, -0.43926703929901123047f, 0.22305129468441009521f, 0.87329143285751342773f, -0.031976275146007537842f, 0.22833402454853057861f, -0.071372732520103454590f, 0.19343383610248565674f, 0.11523320525884628296f, 0.62113058567047119141f},
    {0.086898691952228546143f, 0.10637260973453521729f, 0.022797929123044013977f, -0.24651168286800384521f, -0.031273588538169860840f, -0.099164977669715881348f, -0.097328171133995056152f, 0.16394411027431488037f, -0.17417588829994201660f, -0.071475960314273834229f, -0.29620605707168579102f, 0.088313013315200805664f, -0.15540084242820739746f, -0.60980093479156494141f, -0.16672724485397338867f, 0.081145338714122772217f, 0.16762834787368774414f, -0.42682963609695434570f, -0.31646141409873962402f, -0.14018414914608001709f, 0.050314106047153472900f, 0.030221208930015563965f, -0.20308907330036163330f, -0.26331937313079833984f, -0.13395901024341583252f, -0.026056151837110519409f, -0.11460566520690917969f, -0.076609730720520019531f, -0.18988753855228424072f, -0.43278306722640991211f, -0.10088213533163070679f, 0.034266684204339981079f, 0.27828958630561828613f, 0.034992814064025878906f, -0.084630765020847320557f, 0.051026415079832077026f, 0.049535535275936126709f, 0.0063765943050384521484f, 0.077734068036079406738f, 0.0062653534114360809326f, 0.15015637874603271484f, -0.047182708978652954102f, 0.21244126558303833008f, 0.042123202234506607056f, 0.061174813657999038696f, -0.18064601719379425049f, -0.38016846776008605957f, -0.16863712668418884277f, -0.014035270549356937408f, -0.030130725353956222534f, -0.099119134247303009033f, 0.26943901181221008301f, 0.020757723599672317505f, 0.14060564339160919189f, -0.12101149559020996094f, -0.34369078278541564941f, -0.62890887260437011719f, -0.075571224093437194824f, 0.062411922961473464966f, -0.060927219688892364502f, 0.12416435033082962036f, -0.012498497031629085541f, -0.031863801181316375732f, 0.13344722986221313477f},
    {0.43802830576896667480f, -0.047260869294404983521f, -0.089882910251617431641f, -0.15010562539100646973f, 0.036081351339817047119f, 0.14496058225631713867f, -0.070193618535995483398f, 0.11547463387250900269f, -0.17025731503963470459f, 0.053290501236915588379f, -0.23137912154197692871f, -0.036903407424688339233f, -0.0075287269428372383118f, -0.40017545223236083984f, 0.074549347162246704102f, -0.096648856997489929199f, -0.021333441138267517090f, -0.25108617544174194336f, -0.10798194259405136108f, 0.0078835105523467063904f, -0.029304193332791328430f, -0.10098156332969665527f, -0.28522914648056030273f, -0.026038158684968948364f, -0.19008676707744598389f, -0.094525426626205444336f, 0.067569322884082794189f, -0.054573260247707366943f, 0.14595840871334075928f, -0.34611603617668151855f, 0.053139984607696533203f, -0.26310300827026367188f, 0.24073652923107147217f, -0.19638097286224365234f, 0.098440475761890411377f, -0.19336530566215515137f, 0.12777146697044372559f, -0.15882565081119537354f, 0.027792902663350105286f, -0.16315574944019317627f, 0.40571603178977966309f, -0.0019652273040264844894f, 0.22019211947917938232f, -0.040858067572116851807f, 0.089752346277236938477f, 0.40758219361305236816f, 0.067426405847072601318f, -0.17157202959060668945f, 0.32849329710006713867f, -0.60727095603942871094f, -0.22872473299503326416f, 0.020292254164814949036f, 0.043294858187437057495f, -0.059307921677827835083f, -0.013875435106456279755f, -0.64894586801528930664f, -0.47639271616935729980f, -0.067609250545501708984f, 0.13573649525642395020f, -0.0083997016772627830505f, -0.21817079186439514160f, 0.0030539180152118206024f, 0.16697151958942413330f, 0.016206059604883193970f},
    {-0.078756973147392272949f, 0.19175240397453308105f, 0.00037086807424202561378f, -0.17749644815921783447f, -0.067993178963661193848f, 0.41058266162872314453f, -0.27630153298377990723f, 0.38777685165405273438f, 0.10131632536649703979f, -0.076836451888084411621f, -0.082884006202220916748f, -0.52468234300613403320f, -0.037924464792013168335f, -0.12468504905700683594f, 0.11794951558113098145f, 0.023769792169332504272f, -0.18816792964935302734f, -0.041761524975299835205f, -0.076124332845211029053f, 0.10635262727737426758f, -0.12869185209274291992f, 0.23012655973434448242f, -0.16793456673622131348f, 0.16413749754428863525f, -0.042161829769611358643f, -0.23556460440158843994f, -0.23600235581398010254f, -0.14792130887508392334f, 0.32212635874748229980f, 0.22550714015960693359f, -0.029328225180506706238f, 0.079886391758918762207f, -0.027101680636405944824f, -0.025121027603745460510f, -0.13616625964641571045f, -0.018498357385396957397f, -0.053945321589708328247f, -0.10186067223548889160f, -0.25276243686676025391f, 0.34470626711845397949f, 0.12304270267486572266f, 0.28783416748046875000f, 0.17408367991447448730f, -0.046854633837938308716f, 0.30654954910278320312f, 0.20004391670227050781f, -0.28669780492782592773f, 0.26368293166160583496f, -0.16349850594997406006f, 0.45235210657119750977f, -0.059657812118530273438f, -0.20855285227298736572f, 0.022038243710994720459f, -0.046127762645483016968f, 0.27117580175399780273f, 0.070843249559402465820f, 0.0070371143519878387451f, -0.33625480532646179199f, -0.034885540604591369629f, 0.18082857131958007812f, -0.39762943983078002930f, -0.52020335197448730469f, -0.030298218131065368652f, -0.029321266338229179382f},
    {0.018693232908844947815f, -0.26519319415092468262f, 0.16471299529075622559f, -0.090548709034919738770f, -0.21241958439350128174f, -0.33779469132423400879f, 0.023595739156007766724f, 0.11087566614151000977f, 0.14110815525054931641f, 0.28444576263427734375f, -0.18925136327743530273f, -0.18636935949325561523f, 0.11175153404474258423f, -0.068680144846439361572f, -0.0059572523459792137146f, -0.21291908621788024902f, -0.099974989891052246094f, 0.0041381446644663810730f, -0.10579679161310195923f, 0.0079541308805346488953f, 0.11655625700950622559f, 0.32443994283676147461f, 0.16996151208877563477f, -0.46856865286827087402f, 0.070125050842761993408f, 0.18222109973430633545f, 0.12164455652236938477f, 0.020502243191003799438f, 0.34859773516654968262f, -0.066701412200927734375f, -0.42251092195510864258f, -0.42868417501449584961f, -0.027852272614836692810f, -0.010665910318493843079f, 0.033466201275587081909f, 0.19233939051628112793f, 0.018987670540809631348f, 0.18801574409008026123f, -0.12746593356132507324f, 0.21895638108253479004f, -0.12128715217113494873f, -0.27818658947944641113f, 0.028388325124979019165f, 0.32824069261550903320f, -0.10453440248966217041f, 0.15962001681327819824f, 0.41450062394142150879f, -0.14241753518581390381f, -0.028276460245251655579f, -0.39254057407379150391f, 0.055219832807779312134f, -0.11274954676628112793f, -0.24149292707443237305f, -0.34079852700233459473f, -0.049285065382719039917f, -0.11477676779031753540f, 0.13590125739574432373f, 0.089559830725193023682f, -0.35019606351852416992f, -0.28244107961654663086f, -0.10590599477291107178f, 0.25765606760978698730f, 0.35737189650535583496f, -0.19349880516529083252f},
    {0.17019528150558471680f, 0.19563089311122894287f, 0.0083900485187768936157f, -0.49339461326599121094f, 0.11902561783790588379f, 0.012246505357325077057f, 0.14021266996860504150f, 0.87997937202453613281f, -0.59012085199356079102f, 0.036159336566925048828f, -0.41024357080459594727f, 0.051261633634567260742f, -0.22318924963474273682f, 0.23397992551326751709f, 0.042504161596298217773f, 0.26077944040298461914f, 0.030530460178852081299f, -0.44262692332267761230f, -0.50356656312942504883f, -0.0053431498818099498749f, 0.034122426062822341919f, -0.0039630718529224395752f, -0.060269180685281753540f, 0.15960705280303955078f, -0.11994300037622451782f, -0.18996925652027130127f, -0.20458482205867767334f, 0.084839455783367156982f, 0.055421769618988037109f, 0.40928837656974792480f, -0.16777336597442626953f, 0.42599976062774658203f, 0.21936726570129394531f, -0.18120409548282623291f, 0.046515524387359619141f, 0.15192459523677825928f, -0.16445176303386688232f, -0.28875628113746643066f, 0.33387631177902221680f, -0.0035541241522878408432f, -0.28371760249137878418f, 0.14908584952354431152f, 0.33075472712516784668f, 0.16226515173912048340f, 0.20198646187782287598f, 0.64549636840820312500f, 0.34614250063896179199f, -0.55991393327713012695f, -0.00063693174161016941071f, -0.28767901659011840820f, -0.48260921239852905273f, 0.50353491306304931641f, 0.10820561647415161133f, 0.12072134763002395630f, -0.040172316133975982666f, 0.93849515914916992188f, -0.69387418031692504883f, -0.24147595465183258057f, 0.14800319075584411621f, 0.58370828628540039062f, 0.25118738412857055664f, -0.45495519042015075684f, 0.13455633819103240967f, 0.23283302783966064453f},
    {-0.23703287541866302490f, 0.087542347609996795654f, -0.0079611549153923988342f, 0.36247095465660095215f, 0.14672730863094329834f, -0.27704373002052307129f, 0.078474588692188262939f, -0.0031790826469659805298f, -0.30056470632553100586f, 0.14778195321559906006f, -0.078879915177822113037f, 0.26979964971542358398f, -0.48196956515312194824f, -0.40479159355163574219f, 0.023632332682609558105f, 0.16915695369243621826f, 0.22974590957164764404f, -0.78156381845474243164f, -0.35289070010185241699f, -0.18361857533454895020f, 0.054150391370058059692f, -0.19675950706005096436f, -0.070901721715927124023f, -0.71330761909484863281f, -0.77870529890060424805f, 0.027849491685628890991f, -0.22672910988330841064f, -0.31218528747558593750f, -0.22249962389469146729f, -1.1849263906478881836f, 0.086542665958404541016f, -0.41393920779228210449f, 0.37981635332107543945f, 0.35669860243797302246f, -0.21252259612083435059f, 0.058781176805496215820f, 0.20773316919803619385f, -0.10125695168972015381f, 0.24687778949737548828f, 0.073395065963268280029f, -0.047509390860795974731f, 0.0044016824103891849518f, 0.33904716372489929199f, -0.19610457122325897217f, 0.31509920954704284668f, -0.20369628071784973145f, 0.058545347303152084351f, -0.29334220290184020996f, 0.23195068538188934326f, -0.73675048351287841797f, -0.42513817548751831055f, 0.61806201934814453125f, 0.28401023149490356445f, -0.10703513026237487793f, -0.87989652156829833984f, 0.21383245289325714111f, -0.44603708386421203613f, -0.65369558334350585938f, -0.015373573638498783112f, -0.31341165304183959961f, 0.13011048734188079834f, -0.17562764883041381836f, -0.26997846364974975586f, -0.15403829514980316162f},
    {-0.12681807577610015869f, -0.27489563822746276855f, -0.28698316216468811035f, -0.046108990907669067383f, -0.025531476363539695740f, 0.035257261246442794800f, 0.13517031073570251465f, -0.14784528315067291260f, 0.13906060159206390381f, -0.099402971565723419189f, -0.021091820672154426575f, 0.015716686844825744629f, -0.29155480861663818359f, 0.12379977852106094360f, 0.23197253048419952393f, -0.15395283699035644531f, -0.19155533611774444580f, -0.16798949241638183594f, -0.10600438714027404785f, -0.18699191510677337646f, -0.086076378822326660156f, 0.090075291693210601807f, -0.051210492849349975586f, -0.071917325258255004883f, -0.27355438470840454102f, 0.046014495193958282471f, 0.17158776521682739258f, 0.14570792019367218018f, 0.10767643898725509644f, -0.30692195892333984375f, 0.12008722126483917236f, -0.33245801925659179688f, 0.15697024762630462646f, -0.088326752185821533203f, 0.022970486432313919067f, -0.099454954266548156738f, -0.018081402406096458435f, 0.060972213745117187500f, -0.16264286637306213379f, 0.033586461097002029419f, 0.60042184591293334961f, -0.036659903824329376221f, -0.019225003197789192200f, -0.019482063129544258118f, 0.11223407834768295288f, -0.12127949297428131104f, -0.66402292251586914062f, -0.13812349736690521240f, 0.61130380630493164062f, -0.0063029192388057708740f, -0.10436285287141799927f, 0.16617551445960998535f, 0.057643253356218338013f, -0.057282194495201110840f, 0.060208071023225784302f, -0.15890234708786010742f, -0.45374584197998046875f, 0.41924801468849182129f, -0.016280258074402809143f, -0.097372494637966156006f, -0.10783885419368743896f, 0.46166452765464782715f, 0.00065207784064114093781f, 0.093108162283897399902f},
    {-0.10734789818525314331f, -0.0014464351115748286247f, -0.24380032718181610107f, -0.054773520678281784058f, -0.021428756415843963623f, 0.026907883584499359131f, 0.055109992623329162598f, 0.089171126484870910645f, -0.051111761480569839478f, -0.20016558468341827393f, -0.37752628326416015625f, -0.049571800976991653442f, -0.63921779394149780273f, 0.35791233181953430176f, -0.26677155494689941406f, 0.24549697339534759521f, -0.031147647649049758911f, -0.26609072089195251465f, -0.36553087830543518066f, -0.13630145788192749023f, -0.071062527596950531006f, -0.013216878287494182587f, -0.10656426101922988892f, -0.049205221235752105713f, -0.32704254984855651855f, -0.26553460955619812012f, 0.11424604058265686035f, 0.058915797621011734009f, 0.021831413730978965759f, -0.15861839056015014648f, 0.0096749858930706977844f, -0.014715772122144699097f, 0.28689882159233093262f, 0.30156141519546508789f, 0.087817206978797912598f, 0.031424675136804580688f, -0.12910719215869903564f, 0.15795719623565673828f, 0.079913593828678131104f, -0.085257977247238159180f, -0.23532663285732269287f, 0.056054174900054931641f, 0.18288515508174896240f, 0.22860191762447357178f, -0.013450671918690204620f, 0.10560640692710876465f, 0.031005341559648513794f, 0.14431995153427124023f, 0.044451009482145309448f, 0.036379780620336532593f, -0.078878693282604217529f, 0.29622837901115417480f, -0.31117337942123413086f, -0.016937581822276115417f, -0.39035370945930480957f, 0.32414841651916503906f, -0.25288704037666320801f, -0.037542216479778289795f, -0.23259703814983367920f, 0.24884425103664398193f, -0.074072323739528656006f, -0.16681030392646789551f, -0.058166258037090301514f, 0.027297254651784896851f},
    {-0.29167565703392028809f, 0.034154411405324935913f, 0.085203662514686584473f, -0.19649727642536163330f, -0.10947997123003005981f, 0.13606977462768554688f, 0.098738193511962890625f, 0.60903322696685791016f, -0.15835011005401611328f, 0.19825074076652526855f, -0.40965408086776733398f, -0.58759665489196777344f, -0.19555889070034027100f, 0.82610136270523071289f, 0.18001839518547058105f, 0.30794894695281982422f, 0.34879338741302490234f, -0.26083707809448242188f, -1.0153398513793945312f, -0.010112181305885314941f, 0.24919933080673217773f, 0.047094501554965972900f, 0.10411593317985534668f, -0.14885391294956207275f, -0.58855730295181274414f, -0.11137197911739349365f, -0.29752805829048156738f, -0.039428997784852981567f, 0.074492134153842926025f, 0.16807210445404052734f, -0.42483806610107421875f, 0.46340158581733703613f, 0.45863729715347290039f, -0.14469608664512634277f, -0.46927228569984436035f, 0.25160697102546691895f, -0.21354061365127563477f, -0.12074925005435943604f, -0.42078787088394165039f, 0.12721098959445953369f, 0.20952880382537841797f, 0.19137382507324218750f, 0.19269877672195434570f, 0.78515028953552246094f, 0.10448427498340606689f, -0.18491698801517486572f, 0.0089257592335343360901f, -0.46822279691696166992f, -0.21604733169078826904f, 0.19677181541919708252f, -0.37762105464935302734f, 0.051622673869132995605f, -0.043208122253417968750f, -0.033249296247959136963f, -0.46948397159576416016f, 1.4788849353790283203f, -0.28653311729431152344f, 0.57292133569717407227f, 0.10213866084814071655f, 0.57962965965270996094f, -0.14963969588279724121f, -0.36664110422134399414f, -0.14715793728828430176f, 0.11069312691688537598f},
    {-0.13834999501705169678f, -0.15185654163360595703f, -0.36124056577682495117f, -0.17161211371421813965f, -0.050044547766447067261f, 0.10155975818634033203f, -0.28446155786514282227f, -0.45002093911170959473f, 0.11921317875385284424f, -0.32660153508186340332f, -0.38999378681182861328f, 0.22462472319602966309f, -0.27651011943817138672f, 0.29689636826515197754f, -0.56057292222976684570f, 0.034319326281547546387f, 0.044363327324390411377f, -0.050927273929119110107f, 0.038635384291410446167f, -0.12550006806850433350f, -0.036947187036275863647f, -0.084489740431308746338f, 0.27917057275772094727f, 0.057133294641971588135f, -0.19504064321517944336f, 0.14292342960834503174f, 0.38490492105484008789f, 0.093029342591762542725f, 0.16100123524665832520f, -0.27803257107734680176f, -0.030542053282260894775f, -0.15593828260898590088f, 0.022234681993722915649f, -0.35048279166221618652f, 0.19879424571990966797f, -0.42014104127883911133f, -0.21112494170665740967f, 0.11260788887739181519f, 0.11229923367500305176f, 0.43174615502357482910f, 0.56434458494186401367f, -0.034030366688966751099f, -0.10796779394149780273f, -0.076804414391517639160f, 0.044271685183048248291f, 0.094384618103504180908f, -0.45967748761177062988f, 0.084364943206310272217f, -0.033409379422664642334f, 0.051752038300037384033f, 0.24131388962268829346f, -0.024730131030082702637f, 0.15717217326164245605f, 0.11230426281690597534f, -0.00081912137102335691452f, -0.13614881038665771484f, -0.23835231363773345947f, 0.25526592135429382324f, 0.10115599632263183594f, 0.10674694925546646118f, 0.29943454265594482422f, 0.050371803343296051025f, 0.26788267493247985840f, 0.34453058242797851562f},
    {0.74613392353057861328f, 0.065066672861576080322f, 0.083947323262691497803f, -0.95325136184692382812f, 0.77788287401199340820f, 0.38805571198463439941f, -0.12040089070796966553f, 0.87280505895614624023f, -0.39206430315971374512f, 0.23303039371967315674f, -0.20667108893394470215f, 0.42865940928459167480f, -0.73877805471420288086f, -0.29882723093032836914f, 0.089009635150432586670f, 0.22122126817703247070f, 0.092049457132816314697f, -0.47784543037414550781f, -0.24625521898269653320f, -0.31924277544021606445f, 0.18857331573963165283f, -0.52600014209747314453f, -0.40317785739898681641f, 0.25309330224990844727f, -0.11838739365339279175f, -0.10431247204542160034f, -0.52325785160064697266f, -0.069245405495166778564f, -0.19793544709682464600f, 0.39434882998466491699f, 0.28492617607116699219f, 0.69619590044021606445f, 0.19632084667682647705f, -0.31431248784065246582f, -0.085530951619148254395f, -0.30785807967185974121f, -0.15079055726528167725f, -0.24715432524681091309f, 0.56616693735122680664f, -0.0032604176085442304611f, 0.34326452016830444336f, 0.038169961422681808472f, 0.36502346396446228027f, -0.18966047465801239014f, 0.27682471275329589844f, -0.33430123329162597656f, 0.16499792039394378662f, -0.12677404284477233887f, 0.36712437868118286133f, 0.0072228610515594482422f, -0.39868664741516113281f, 0.67440223693847656250f, -0.034670826047658920288f, 0.30103260278701782227f, -0.43478614091873168945f, -0.14473411440849304199f, -0.62811237573623657227f, 0.29687881469726562500f, -0.090251617133617401123f, 1.0713282823562622070f, 0.22008468210697174072f, -0.32792744040489196777f, -0.38054025173187255859f, 0.78122520446777343750f},
    {0.20769593119621276855f, -0.0074543287046253681183f, -0.070753976702690124512f, -0.25137689709663391113f, 0.12159539014101028442f, -0.41551563143730163574f, -0.17224496603012084961f, -0.025218060240149497986f, -0.11436490714550018311f, -0.074965968728065490723f, -0.42235207557678222656f, 0.25823619961738586426f, -0.44585773348808288574f, -0.013201024383306503296f, -0.23521929979324340820f, 0.061120372265577316284f, -0.067700661718845367432f, -0.21614363789558410645f, -0.096740923821926116943f, 0.019401848316192626953f, 0.14210471510887145996f, -0.19999776780605316162f, 0.23843716084957122803f, -0.40541669726371765137f, -0.35370725393295288086f, -0.044273782521486282349f, 0.060220856219530105591f, 0.24655753374099731445f, 0.24020029604434967041f, -0.60866349935531616211f, -0.15592610836029052734f, -0.63738840818405151367f, 0.048202790319919586182f, -0.082682281732559204102f, 0.038473416119813919067f, -0.23361136019229888916f, -0.0035079591907560825348f, -0.099365063011646270752f, -0.0074798879213631153107f, 0.10228366404771804810f, -0.047146134078502655029f, -0.37125808000564575195f, 0.10892291367053985596f, -0.096436090767383575439f, -0.11357393860816955566f, 0.038523659110069274902f, -0.012242422439157962799f, -0.21959392726421356201f, -0.033341620117425918579f, -0.22410982847213745117f, -0.15954966843128204346f, -0.12059716880321502686f, 0.10516681522130966187f, -0.14125949144363403320f, -0.22849097847938537598f, -0.37052416801452636719f, -0.079014889895915985107f, -0.091699607670307159424f, 0.22104181349277496338f, 0.097547151148319244385f, 0.066426880657672882080f, 0.026499878615140914917f, 0.33719217777252197266f, 0.0051132380031049251556f},
    {-0.69633102416992187500f, -0.035947896540164947510f, -0.21149609982967376709f, 1.0010632276535034180f, -0.81149536371231079102f, 0.092198446393013000488f, 0.27723029255867004395f, -0.51240253448486328125f, 0.34262794256210327148f, -0.25433000922203063965f, 0.24441935122013092041f, -0.17074914276599884033f, 0.22668240964412689209f, 1.3637022972106933594f, -0.43955862522125244141f, -0.12760396301746368408f, -0.20325900614261627197f, -0.087961375713348388672f, 0.092543177306652069092f, -0.011301591992378234863f, 0.023219892755150794983f, 0.33721032738685607910f, 0.48273259401321411133f, -0.36250215768814086914f, 0.12732177972793579102f, 0.18425413966178894043f, 0.22621637582778930664f, 0.31509143114089965820f, 0.48104667663574218750f, -0.17204043269157409668f, -0.041572120040655136108f, -0.13048267364501953125f, 0.013685092329978942871f, 0.34722620248794555664f, -0.0098542021587491035461f, 0.39723494648933410645f, -0.14944076538085937500f, 0.042664002627134323120f, 0.13811787962913513184f, 0.14086979627609252930f, 0.30654358863830566406f, 0.63522428274154663086f, -0.22929164767265319824f, -0.10947366058826446533f, -0.31993308663368225098f, 0.51961034536361694336f, -0.55559480190277099609f, 0.22102342545986175537f, 0.047043748199939727783f, 0.61683660745620727539f, 0.24474796652793884277f, 0.21169446408748626709f, -0.15588325262069702148f, -0.12906506657600402832f, 0.26865237951278686523f, 0.35950192809104919434f, -0.13273726403713226318f, 0.55234253406524658203f, -0.057749006897211074829f, -0.94163811206817626953f, -0.096935518085956573486f, 0.039196372032165527344f, -0.41305300593376159668f, -0.86687046289443969727f},
    {-0.020681191235780715942f, 0.039275553077459335327f, -0.21814364194869995117f, 0.17015960812568664551f, -0.37169402837753295898f, 0.19827717542648315430f, 0.023876626044511795044f, -0.26412516832351684570f, 0.092554375529289245605f, -0.035094194114208221436f, -0.11715510487556457520f, -0.28015714883804321289f, 0.22374850511550903320f, -0.51029610633850097656f, 0.37034890055656433105f, -0.17355452477931976318f, -0.30523794889450073242f, -0.17591771483421325684f, -0.50660169124603271484f, 0.022244324907660484314f, 0.11201432347297668457f, 0.063230611383914947510f, 0.019506620243191719055f, -0.012680104933679103851f, -0.010313018225133419037f, -0.11990220099687576294f, -0.11461428552865982056f, 0.23946574330329895020f, 0.19465540349483489990f, -0.074763797223567962646f, 0.053641043603420257568f, -0.30367526412010192871f, 0.34631478786468505859f, 0.047538943588733673096f, 0.094128333032131195068f, 0.13904885947704315186f, 0.067740842700004577637f, 0.093654684722423553467f, -0.081738084554672241211f, 0.031054500490427017212f, 0.10071078687906265259f, -0.14484319090843200684f, 0.14319020509719848633f, 0.43209877610206604004f, -0.11394131928682327271f, 0.58718508481979370117f, -0.19225417077541351318f, -0.17167639732360839844f, -0.14910744130611419678f, 0.21256975829601287842f, -0.078271642327308654785f, -0.13831722736358642578f, -0.032609075307846069336f, -0.22020252048969268799f, 0.065191932022571563721f, 0.15384861826896667480f, -0.12557537853717803955f, -0.18955050408840179443f, 0.059831451624631881714f, -0.56219476461410522461f, -0.48770722746849060059f, 0.11727449297904968262f, 0.23306871950626373291f, -0.11826062202453613281f},
    {-0.48222997784614562988f, -0.52120661735534667969f, 0.056280989199876785278f, 0.73886477947235107422f, -0.17533718049526214600f, 0.00058422517031431198120f, -0.29936307668685913086f, -0.34386250376701354980f, 0.26588657498359680176f, -0.85557913780212402344f, 0.42432770133018493652f, -0.11664301902055740356f, 0.28682577610015869141f, 0.76423346996307373047f, -0.53178054094314575195f, -0.30658248066902160645f, -0.21811689436435699463f, 0.41532427072525024414f, 0.41659703850746154785f, -0.061545625329017639160f, -0.070365421473979949951f, 0.69397741556167602539f, 0.63241088390350341797f, -0.084093309938907623291f, 0.36720591783523559570f, 0.20029562711715698242f, 0.20761811733245849609f, 0.19917893409729003906f, 0.19623769819736480713f, 0.099421612918376922607f, -0.25919038057327270508f, 0.19155564904212951660f, -0.41001853346824645996f, -0.40184015035629272461f, 0.31929069757461547852f, 0.34148928523063659668f, -0.48126521706581115723f, 0.27377963066101074219f, -0.058632656931877136230f, 0.029317323118448257446f, -0.028356879949569702148f, 0.83302247524261474609f, -0.56917703151702880859f, -0.57671260833740234375f, -0.25197657942771911621f, 0.43757823109626770020f, -0.58365637063980102539f, 0.73048722743988037109f, -0.35909822583198547363f, 0.090624712407588958740f, 0.63874006271362304688f, 0.18910944461822509766f, -0.28634732961654663086f, -0.14476969838142395020f, 0.39458689093589782715f, 0.25593689084053039551f, 0.051237765699625015259f, 0.28654143214225769043f, 0.064238950610160827637f, -0.53201746940612792969f, 0.0052172970026731491089f, 0.33983319997787475586f, 0.041505798697471618652f, -0.49410367012023925781f},
    {-0.051402065902948379517f, -0.060772795230150222778f, 0.058732077479362487793f, -0.20340201258659362793f, 0.38399216532707214355f, -0.19229906797409057617f, 0.043973777443170547485f, -0.068935029208660125732f, -0.17125830054283142090f, -0.033239975571632385254f, -0.063341416418552398682f, 0.24257248640060424805f, -0.84297674894332885742f, 0.68849527835845947266f, 0.14373542368412017822f, 0.30655828118324279785f, 0.34928742051124572754f, -1.0839128494262695312f, -0.15115159749984741211f, -0.025019075721502304077f, -0.10259935259819030762f, -0.055214680731296539307f, -0.11376502364873886108f, -0.56456702947616577148f, -0.69423812627792358398f, 0.055486619472503662109f, 0.038464546203613281250f, -0.26796507835388183594f, -0.26297160983085632324f, -0.72428047657012939453f, 0.031191470101475715637f, 0.17467036843299865723f, 0.42901429533958435059f, -0.17863027751445770264f, -0.12844236195087432861f, 0.022163020446896553040f, -0.10405646264553070068f, -0.086685180664062500000f, 0.20838354527950286865f, 0.021303648129105567932f, 0.067327365279197692871f, 0.075630925595760345459f, 0.13649310171604156494f, 0.14222750067710876465f, 0.17493291199207305908f, 0.0083617279306054115295f, -0.091693811118602752686f, -0.13528245687484741211f, 0.28176027536392211914f, -0.31091096997261047363f, -0.32018381357192993164f, 0.55891805887222290039f, 0.19726656377315521240f, 0.18481956422328948975f, -0.86917638778686523438f, 0.47787705063819885254f, -0.46628040075302124023f, -0.41733860969543457031f, -0.10216266661882400513f, 0.19235317409038543701f, 0.29296055436134338379f, -0.13920287787914276123f, -0.29037767648696899414f, 0.055778894573450088501f},
    {-0.44451820850372314453f, -0.20958553254604339600f, -0.19873194396495819092f, 0.24773731827735900879f, -0.53199005126953125000f, 0.097262419760227203369f, -0.46700254082679748535f, 0.027086587622761726379f, 0.093934379518032073975f, -0.44840607047080993652f, -0.38939976692199707031f, -0.23464813828468322754f, 0.20553883910179138184f, 0.36343032121658325195f, 0.11725651472806930542f, -0.033566806465387344360f, -0.22045409679412841797f, 0.30453655123710632324f, 0.29571419954299926758f, 0.51081269979476928711f, 0.11001467704772949219f, 0.30701991915702819824f, 0.16763970255851745605f, -0.045414954423904418945f, 0.32755786180496215820f, -0.18194195628166198730f, -0.13337284326553344727f, 0.20166718959808349609f, 0.33037286996841430664f, 0.33266696333885192871f, -0.22315134108066558838f, -0.27587968111038208008f, -0.25869172811508178711f, 0.70526480674743652344f, 0.35529562830924987793f, 0.48515692353248596191f, -0.23165342211723327637f, 0.17314009368419647217f, -0.32880899310111999512f, 0.065296709537506103516f, -0.15562327206134796143f, 0.52631765604019165039f, -0.28959155082702636719f, -0.26780435442924499512f, -0.46166971325874328613f, 0.80831474065780639648f, -0.22990962862968444824f, 0.90192615985870361328f, -0.58889186382293701172f, 0.49635025858879089355f, 0.16576264798641204834f, 0.034371923655271530151f, -0.33941736817359924316f, -0.053911931812763214111f, 0.39045462012290954590f, 0.010234145447611808777f, 0.0053776446729898452759f, -0.30243521928787231445f, -0.12438005208969116211f, -0.20026363432407379150f, -0.44861420989036560059f, 0.13347819447517395020f, 0.25528129935264587402f, -0.27040600776672363281f},
    {0.054213326424360275269f, 0.17525494098663330078f, -0.11860293149948120117f, -0.24800661206245422363f, -0.10843654721975326538f, 0.15365877747535705566f, -0.17516379058361053467f, 0.13187663257122039795f, -0.00015752919716760516167f, -0.072660334408283233643f, -0.51653009653091430664f, -0.33900800347328186035f, 0.18909968435764312744f, 0.065033763647079467773f, 0.096453778445720672607f, -0.067006640136241912842f, -0.049259506165981292725f, 0.080650672316551208496f, 0.11891830712556838989f, 0.17523741722106933594f, -0.011542474851012229919f, -0.026193857192993164062f, -0.030838925391435623169f, -0.041129432618618011475f, 0.19462049007415771484f, -0.48147383332252502441f, 0.037753928452730178833f, 0.0011666485806927084923f, 0.33647829294204711914f, 0.17402026057243347168f, -0.16006945073604583740f, -0.15112353861331939697f, -0.12201017141342163086f, -0.15844403207302093506f, 0.27562406659126281738f, 0.00040750982589088380337f, 0.49046534299850463867f, -0.13568632304668426514f, -0.13319033384323120117f, -0.11611672490835189819f, 0.12628740072250366211f, -0.072811752557754516602f, -0.10982702672481536865f, 0.15581576526165008545f, 0.080341361463069915771f, 0.13152088224887847900f, -0.052906662225723266602f, 0.15274341404438018799f, -0.20776844024658203125f, -0.25093367695808410645f, 0.18599122762680053711f, -0.20868201553821563721f, 0.21664422750473022461f, 0.025853294879198074341f, 0.28366142511367797852f, -0.094750568270683288574f, 0.11334325373172760010f, 0.037881527096033096313f, 0.28594425320625305176f, 0.078996904194355010986f, -0.24031654000282287598f, -0.20537768304347991943f, 0.041032895445823669434f, 0.077496521174907684326f},
    {0.16432873904705047607f, -0.25579690933227539062f, -0.0026529107708483934402f, -0.11093445122241973877f, 0.33902993798255920410f, -1.0006134510040283203f, -0.11748386174440383911f, -0.051857676357030868530f, -0.26701951026916503906f, 0.044391069561243057251f, 0.018815331161022186279f, 0.41737723350524902344f, -0.50539964437484741211f, -0.096912972629070281982f, 0.15943501889705657959f, 0.084334187209606170654f, 0.17640344798564910889f, -0.48849108815193176270f, -0.34216085076332092285f, -0.54340183734893798828f, -0.035764530301094055176f, -0.14190053939819335938f, -0.0096067134290933609009f, -0.72994071245193481445f, -0.39665064215660095215f, -0.0029123784042894840240f, -0.010561269707977771759f, 0.12645198404788970947f, -0.084817327558994293213f, -0.67725503444671630859f, 0.12785032391548156738f, -0.52059930562973022461f, 0.41005903482437133789f, 0.060401659458875656128f, 0.0019322462612763047218f, 0.025227891281247138977f, -0.27723264694213867188f, 0.16502799093723297119f, 0.16201385855674743652f, -0.020951446145772933960f, 0.33696442842483520508f, -0.59161353111267089844f, 0.18368555605411529541f, -0.082855306565761566162f, 0.064511410892009735107f, -0.15749934315681457520f, -0.47760415077209472656f, -0.54206019639968872070f, 0.32539308071136474609f, -0.092586085200309753418f, -0.22903572022914886475f, 0.22009643912315368652f, 0.18703611195087432861f, -0.23344336450099945068f, -0.32186070084571838379f, -0.31395629048347473145f, -0.33253175020217895508f, 0.67080509662628173828f, 0.045693088322877883911f, -0.0067321886308491230011f, 0.30476793646812438965f, 0.21333071589469909668f, 0.53723049163818359375f, -0.022118188440799713135f},
    {0.32483533024787902832f, 0.069768272340297698975f, 0.20582436025142669678f, -0.59466910362243652344f, 0.023719705641269683838f, 0.14843159914016723633f, -0.74788695573806762695f, 0.066628225147724151611f, 0.31787994503974914551f, -0.046195328235626220703f, -0.25961560010910034180f, -0.075625583529472351074f, -0.17546601593494415283f, -0.72410887479782104492f, -0.29834625124931335449f, 0.11179716885089874268f, -0.089529305696487426758f, 0.11203369498252868652f, -0.063614726066589355469f, -0.15505990386009216309f, -0.21721389889717102051f, -0.055601987987756729126f, -0.16258962452411651611f, -0.28832739591598510742f, -0.24701942503452301025f, 0.16426301002502441406f, 0.31066453456878662109f, 0.41319444775581359863f, 0.028374981135129928589f, -0.029568029567599296570f, -0.075965560972690582275f, -0.033752921968698501587f, -0.063978984951972961426f, 0.034532796591520309448f, 0.13034474849700927734f, -0.48016870021820068359f, 0.088369280099868774414f, 0.011638483032584190369f, -0.062631949782371520996f, 0.18868976831436157227f, 0.11695446819067001343f, -0.10559644550085067749f, -0.16169321537017822266f, -0.0014595778193324804306f, 0.053362648934125900269f, -0.19163894653320312500f, -0.82290637493133544922f, -0.20081517100334167480f, -0.20541770756244659424f, -0.39926469326019287109f, 0.29080605506896972656f, 0.084108315408229827881f, -0.060569990426301956177f, 0.14198547601699829102f, 0.21041397750377655029f, -0.62305194139480590820f, -0.24184574186801910400f, 0.32543244957923889160f, 0.033512674272060394287f, 0.11949311196804046631f, 0.062035329639911651611f, 0.11740390211343765259f, 0.024638395756483078003f, 0.39257839322090148926f},
    {-0.16733044385910034180f, -0.16692851483821868896f, -0.22479294240474700928f, -0.016064178198575973511f, -0.18843907117843627930f, -0.14122082293033599854f, -0.0069787162356078624725f, -0.13668507337570190430f, 0.015220387838780879974f, -0.30593255162239074707f, -0.019750025123357772827f, -0.16655968129634857178f, -0.025499258190393447876f, 0.019937049597501754761f, -0.26851081848144531250f, -0.23842529952526092529f, -0.17951364815235137939f, -0.23679301142692565918f, -0.17107282578945159912f, -0.054549783468246459961f, -0.10963615775108337402f, 0.074827931821346282959f, 0.23463055491447448730f, -0.59458994865417480469f, -0.23573285341262817383f, 0.11466060578823089600f, 0.16097396612167358398f, -0.15571655333042144775f, 0.62730276584625244141f, -0.35311549901962280273f, -0.26516577601432800293f, -0.46315380930900573730f, 0.19903239607810974121f, 0.32219535112380981445f, 0.20742058753967285156f, 0.053738992661237716675f, -0.12161314487457275391f, 0.19463279843330383301f, -0.089892856776714324951f, 0.13589002192020416260f, 0.053404130041599273682f, 0.0082146888598799705505f, -0.14766472578048706055f, -0.30998918414115905762f, 0.0027449184563010931015f, 0.43303105235099792480f, -0.10201313346624374390f, 0.015832113102078437805f, 0.39414581656455993652f, -0.29994189739227294922f, -0.030516676604747772217f, 0.17759922146797180176f, 0.19146323204040527344f, -0.0033059308771044015884f, 0.25928351283073425293f, -0.17153128981590270996f, -0.46759083867073059082f, -0.54933363199234008789f, 0.28975301980972290039f, -0.37090677022933959961f, -0.24884234368801116943f, 0.31927648186683654785f, 0.095786459743976593018f, -0.23002888262271881104f},
    {-0.068019628524780273438f, 0.077249951660633087158f, 0.056501541286706924438f, -0.065662682056427001953f, 0.11091142147779464722f, -0.033579688519239425659f, 0.19941331446170806885f, -0.24465064704418182373f, -0.24793422222137451172f, 0.071147076785564422607f, -0.041285131126642227173f, 0.13904756307601928711f, -0.57599782943725585938f, 0.39912721514701843262f, -0.23430454730987548828f, 0.31254917383193969727f, 0.14368776977062225342f, -0.56739610433578491211f, -0.13841243088245391846f, -0.23443180322647094727f, 0.054322306066751480103f, -0.21072790026664733887f, -0.015635251998901367188f, -0.12516143918037414551f, -0.41721937060356140137f, 0.18102441728115081787f, -0.10493852198123931885f, 0.0032153881620615720749f, -0.16692014038562774658f, -0.85085684061050415039f, 0.078206226229667663574f, -0.23268456757068634033f, 0.30718335509300231934f, -0.015173403546214103699f, 0.019809588789939880371f, 0.0086193177849054336548f, -0.044468849897384643555f, -0.17067532241344451904f, 0.058975938707590103149f, 0.038769241422414779663f, -0.049067609012126922607f, 0.13108417391777038574f, 0.10239232331514358521f, -0.10022412240505218506f, 0.12543170154094696045f, 0.30649158358573913574f, -0.25720739364624023438f, 0.15097953379154205322f, 0.14778603613376617432f, -0.012143313884735107422f, -0.11872795969247817993f, 0.41826221346855163574f, -0.16112123429775238037f, 0.24261693656444549561f, -0.47506734728813171387f, -0.37453126907348632812f, -0.77732807397842407227f, -0.30477312207221984863f, -0.036945253610610961914f, 0.19475726783275604248f, 0.079137235879898071289f, -0.15166758000850677490f, -0.32107985019683837891f, -0.16425769031047821045f},
    {0.18538983166217803955f, -0.016309276223182678223f, -0.27266380190849304199f, -0.094760186970233917236f, 0.090275436639785766602f, 0.16088823974132537842f, 0.13548490405082702637f, 0.13247805833816528320f, -0.073740459978580474854f, -0.085343480110168457031f, -0.36883535981178283691f, 0.012653246521949768066f, -0.48395463824272155762f, 0.30667987465858459473f, -0.21994748711585998535f, 0.036005347967147827148f, 0.10715746134519577026f, -0.30524554848670959473f, -0.24879947304725646973f, 0.0068538445048034191132f, -0.10770453512668609619f, -0.053009316325187683105f, 0.056343171745538711548f, 0.049638312309980392456f, -0.34868678450584411621f, -0.032231301069259643555f, 0.12415361404418945312f, -0.0078718038275837898254f, -0.089562118053436279297f, -0.19303669035434722900f, -0.083596691489219665527f, -0.061845783144235610962f, 0.13474194705486297607f, -0.064100362360477447510f, 0.010715360753238201141f, -0.11512678861618041992f, 0.033459991216659545898f, 0.0032002625521272420883f, 0.10673565417528152466f, -0.14405062794685363770f, 0.030354285612702369690f, 0.053026087582111358643f, 0.10342634469270706177f, -0.13369691371917724609f, 0.083649121224880218506f, 0.13778641819953918457f, 0.038926690816879272461f, -0.024724043905735015869f, 0.068218804895877838135f, 0.014063959009945392609f, -0.046962257474660873413f, 0.056409753859043121338f, 0.12373213469982147217f, 0.12055590003728866577f, -0.29120919108390808105f, 0.043658602982759475708f, -0.21301797032356262207f, 0.031779967248439788818f, -0.21012233197689056396f, 0.33275541663169860840f, 0.13612326979637145996f, -0.10691061615943908691f, -0.16482250392436981201f, 0.19792549312114715576f},
    {0.13457597792148590088f, 0.14577269554138183594f, -0.096093125641345977783f, -0.17124120891094207764f, -0.064396820962429046631f, 0.030518408864736557007f, -0.28910270333290100098f, -0.22265048325061798096f, -0.036028258502483367920f, 0.13033290207386016846f, -0.29810708761215209961f, -0.22204269468784332275f, -0.11530300229787826538f, -0.078391745686531066895f, 0.25326484441757202148f, -0.083962604403495788574f, -0.083059236407279968262f, -0.18250596523284912109f, -0.32296392321586608887f, 0.17200744152069091797f, 0.11643354594707489014f, 0.017167272046208381653f, 0.051741898059844970703f, -0.13504399359226226807f, -0.071111284196376800537f, -0.058289866894483566284f, -0.10349933803081512451f, 0.51615077257156372070f, 0.46723163127899169922f, 0.034499190747737884521f, 0.12164101004600524902f, -0.50656503438949584961f, 0.16708698868751525879f, -0.065080083906650543213f, -0.043052792549133300781f, -0.044094413518905639648f, 0.34760162234306335449f, -0.15224707126617431641f, 0.047451190650463104248f, -0.14174571633338928223f, -0.064160548150539398193f, -0.56525331735610961914f, 0.048353612422943115234f, 0.52961879968643188477f, -0.044396322220563888550f, 0.26761487126350402832f, 0.29172992706298828125f, -0.20485019683837890625f, -0.23264735937118530273f, -0.029918706044554710388f, -0.20121921598911285400f, -0.47272548079490661621f, 0.11383824050426483154f, -0.18561793863773345947f, 0.43648639321327209473f, -0.059106301516294479370f, 0.074125453829765319824f, -0.75549030303955078125f, -0.19899193942546844482f, 0.12977787852287292480f, -0.27439773082733154297f, -0.14901837706565856934f, 0.35305571556091308594f, 0.16560332477092742920f},
    {0.13784594833850860596f, -0.038310308009386062622f, 0.047576464712619781494f, 0.011924275197088718414f, -0.059158943593502044678f, 0.12213997542858123779f, 0.082254990935325622559f, -0.097846247255802154541f, -0.24832583963871002197f, -0.019163368269801139832f, -0.27963876724243164062f, 0.096425682306289672852f, -0.53411477804183959961f, 0.35407066345214843750f, -0.053148690611124038696f, 0.25672242045402526855f, 0.13086767494678497314f, -0.71272003650665283203f, -0.22760449349880218506f, 0.10803525149822235107f, 0.0056559178046882152557f, -0.10577949881553649902f, -0.18826480209827423096f, -0.34792640805244445801f, -0.46755778789520263672f, -0.066512219607830047607f, -0.11304563283920288086f, -0.18762980401515960693f, 0.041665647178888320923f, -0.68931102752685546875f, 0.024659749120473861694f, 0.077369838953018188477f, 0.35066851973533630371f, 0.24626252055168151855f, -0.17461204528808593750f, -0.10663762688636779785f, -0.015694476664066314697f, 0.0081984754651784896851f, -0.0026101151015609502792f, -0.027989368885755538940f, 0.27637797594070434570f, 0.17801430821418762207f, 0.29361689090728759766f, -0.038515433669090270996f, 0.32953611016273498535f, -0.25762054324150085449f, -0.43704366683959960938f, -0.0094646597281098365784f, 0.25714364647865295410f, -0.0097619593143463134766f, -0.15743349492549896240f, 0.38755744695663452148f, 0.10236974805593490601f, 0.11987303197383880615f, -0.49839055538177490234f, 0.089043773710727691650f, -0.71812832355499267578f, -0.24575252830982208252f, 0.079891026020050048828f, 0.24820132553577423096f, 0.15056300163269042969f, -0.078276328742504119873f, -0.039009649306535720825f, 0.077968984842300415039f},
    {-0.33797165751457214355f, -0.064770795404911041260f, -0.055980660021305084229f, 0.81185227632522583008f, -0.95820957422256469727f, -0.072931401431560516357f, -0.10645652562379837036f, 0.11742776632308959961f, 0.28497427701950073242f, -0.30043196678161621094f, 0.29442611336708068848f, -0.24323460459709167480f, 0.89830207824707031250f, -0.40542185306549072266f, -0.30283853411674499512f, -0.17967203259468078613f, -0.13430687785148620605f, 0.078362405300140380859f, -0.15452462434768676758f, -0.073514781892299652100f, 0.033894844353199005127f, 0.48964843153953552246f, 0.13534489274024963379f, -0.12585097551345825195f, 0.36858424544334411621f, 0.23432798683643341064f, 0.26825472712516784668f, 0.38487800955772399902f, 0.14571650326251983643f, 0.31441631913185119629f, -0.20237039029598236084f, -0.061863619834184646606f, -0.19060645997524261475f, 0.49652481079101562500f, 0.0040846201591193675995f, 0.60905349254608154297f, -0.093308217823505401611f, 0.078587517142295837402f, 0.043292403221130371094f, 0.017602302134037017822f, -0.068202249705791473389f, 0.33206722140312194824f, -0.092046551406383514404f, -0.47871840000152587891f, -0.34633842110633850098f, -0.10493447631597518921f, -0.70203661918640136719f, -0.081959821283817291260f, -0.23417147994041442871f, -0.013658674433827400208f, 0.17563985288143157959f, 0.012003179639577865601f, -0.45024934411048889160f, -0.083017393946647644043f, 0.51022469997406005859f, 0.18711529672145843506f, -0.11357770115137100220f, -0.36431318521499633789f, 0.19457501173019409180f, -1.1384580135345458984f, 0.046947665512561798096f, -0.029990455135703086853f, -0.0022177470382302999496f, -1.1381481885910034180f},
    {-0.097053922712802886963f, -0.059342443943023681641f, 0.022840272635221481323f, 0.034163601696491241455f, -0.43661582469940185547f, -0.30636841058731079102f, 0.061664976179599761963f, 0.11178129911422729492f, 0.16678726673126220703f, 0.12942937016487121582f, -0.32484951615333557129f, -0.26813584566116333008f, -0.0082937376573681831360f, 0.26443082094192504883f, 0.00011916700168512761593f, -0.29716688394546508789f, -0.11641617864370346069f, 0.20295239984989166260f, -0.21325774490833282471f, 0.035424031317234039307f, -0.092452555894851684570f, 0.21819233894348144531f, 0.076709695160388946533f, -0.15172444283962249756f, 0.097951643168926239014f, 0.013462669216096401215f, -0.16275206208229064941f, 0.24813446402549743652f, 0.21907973289489746094f, 0.19087819755077362061f, -0.34070739150047302246f, -0.086435943841934204102f, -0.10286688059568405151f, 0.84606158733367919922f, 0.20023708045482635498f, 0.43404543399810791016f, -0.15625491738319396973f, 0.16121765971183776855f, -0.22003762423992156982f, 0.12223150581121444702f, -0.20415513217449188232f, -0.16843634843826293945f, -0.13597448170185089111f, -0.32352769374847412109f, -0.24644142389297485352f, 0.26422175765037536621f, -0.011719706468284130096f, 0.15946732461452484131f, -0.23955015838146209717f, -0.021942257881164550781f, 0.087428279221057891846f, 0.050748657435178756714f, -0.42491048574447631836f, -0.15091724693775177002f, 0.11192876845598220825f, 0.0041880724020302295685f, -0.060156721621751785278f, -0.38114470243453979492f, -0.059913158416748046875f, -0.32744538784027099609f, -0.14693638682365417480f, 0.28424352407455444336f, 0.36848115921020507812f, -0.22008827328681945801f},
    {0.19570744037628173828f, -0.14305758476257324219f, 0.0058481320738792419434f, -0.44780850410461425781f, 0.25184127688407897949f, -0.013168298639357089996f, -0.14327077567577362061f, -0.011511400341987609863f, -0.085727319121360778809f, 0.15466332435607910156f, -0.058689557015895843506f, -0.19514068961143493652f, -0.38391637802124023438f, 0.0048984028398990631104f, -0.037365052849054336548f, 0.13654474914073944092f, -0.20126478374004364014f, 0.013459044508635997772f, -0.19515272974967956543f, -0.11238028109073638916f, 0.072761073708534240723f, -0.27883648872375488281f, -0.027965089306235313416f, -0.22439451515674591064f, -0.15644091367721557617f, 0.057562187314033508301f, 0.045745614916086196899f, 0.17087182402610778809f, 0.14668929576873779297f, -0.10095764696598052979f, 0.059386290609836578369f, -0.38914602994918823242f, 0.13709615170955657959f, -0.23301161825656890869f, 0.28385433554649353027f, -0.19638155400753021240f, -0.11752648651599884033f, 0.092936702072620391846f, -0.064813166856765747070f, -0.076289497315883636475f, -0.21616484224796295166f, -0.58090966939926147461f, -0.0021495737601071596146f, 0.095362655818462371826f, 0.10603155940771102905f, -0.072465397417545318604f, -0.10631182789802551270f, -0.19299830496311187744f, -0.027028249576687812805f, -0.50396060943603515625f, -0.18055185675621032715f, -0.099219255149364471436f, -0.015883117914199829102f, -0.079530186951160430908f, -0.071188278496265411377f, -0.14751069247722625732f, -0.084388315677642822266f, -0.092078439891338348389f, -0.0066754133440554141998f, 0.27594268321990966797f, 0.015550053678452968597f, -0.061590511351823806763f, 0.28110277652740478516f, 0.048883277922868728638f},
    {-0.59794962406158447266f, -0.27511313557624816895f, 0.043582953512668609619f, 1.0329854488372802734f, -0.68817281723022460938f, -0.21291336417198181152f, -0.31952720880508422852f, 0.11155673116445541382f, 0.27953532338142395020f, 0.15591651201248168945f, 0.13492080569267272949f, -0.34577241539955139160f, 0.58476001024246215820f, -0.011460045352578163147f, 0.20474293828010559082f, -0.35189568996429443359f, -0.32063138484954833984f, 0.073813609778881072998f, -0.028672745451331138611f, -0.33363100886344909668f, 0.069668978452682495117f, 0.81525552272796630859f, 0.48619744181632995605f, -0.39310902357101440430f, 0.28398776054382324219f, -0.25824183225631713867f, 0.27183005213737487793f, 0.34840840101242065430f, 0.21738825738430023193f, 0.44924071431159973145f, -0.11267302185297012329f, -0.18687316775321960449f, 0.028194693848490715027f, 0.034950543195009231567f, 0.10691469162702560425f, 0.69961798191070556641f, -0.26835656166076660156f, 0.22936882078647613525f, -0.32851412892341613770f, 0.17258435487747192383f, -0.11257866770029067993f, 0.19588397443294525146f, -0.25111466646194458008f, 0.35095354914665222168f, -0.44537070393562316895f, 0.33143964409828186035f, -0.77973371744155883789f, -0.26158827543258666992f, -0.27781513333320617676f, -0.46106600761413574219f, 0.036257889121770858765f, -0.16039870679378509521f, -0.15392065048217773438f, -0.38420826196670532227f, 0.24611234664916992188f, -0.18940742313861846924f, 0.14069940149784088135f, 0.89916074275970458984f, -0.19660685956478118896f, -1.2643401622772216797f, -0.63544154167175292969f, 0.48029580712318420410f, -0.026719711720943450928f, -0.78082770109176635742f},
    {-0.22996737062931060791f, 0.052104286849498748779f, 0.029576683416962623596f, 0.17051078379154205322f, -0.19667267799377441406f, 0.18055605888366699219f, -0.26024526357650756836f, 0.033553283661603927612f, 0.097023256123065948486f, -0.20432330667972564697f, -0.058944050222635269165f, 0.059979338198900222778f, -0.084680698812007904053f, -0.059869267046451568604f, 0.036045957356691360474f, 0.015589997172355651855f, -0.12661260366439819336f, -0.38597315549850463867f, -0.31956115365028381348f, -0.0065398109145462512970f, -0.076044633984565734863f, 0.10421563684940338135f, 0.13527449965476989746f, -0.29584071040153503418f, -0.12804086506366729736f, 0.092158809304237365723f, -0.0034809869248420000076f, 0.076552592217922210693f, 0.016815217211842536926f, -0.019266989082098007202f, -0.046847306191921234131f, -0.047936193645000457764f, 0.30006623268127441406f, 0.40009489655494689941f, 0.0028667610604315996170f, 0.033614452928304672241f, 0.088740974664688110352f, -0.14219631254673004150f, 0.087112195789813995361f, -0.036581490188837051392f, -0.034621577709913253784f, 0.031354345381259918213f, 0.11332318186759948730f, -0.049834992736577987671f, -0.066716030240058898926f, 0.41644695401191711426f, -0.38764512538909912109f, -0.22989037632942199707f, -0.0037850157823413610458f, -0.16228829324245452881f, -0.015971176326274871826f, 0.23023219406604766846f, 0.13835257291793823242f, 0.10918752849102020264f, -0.047069136053323745728f, 0.14048779010772705078f, -0.41459742188453674316f, -0.53989040851593017578f, -0.10755918174982070923f, -0.15452763438224792480f, -0.15296520292758941650f, 0.074024356901645660400f, 0.010151446796953678131f, -0.25668594241142272949f},
